{"learner":{"attributes":{"scikit_learn":"{\"_estimator_type\": \"classifier\"}"},"feature_names":[],"feature_types":[],"gradient_booster":{"model":{"cats":{"enc":[],"feature_segments":[],"sorted_idx":[]},"gbtree_model_param":{"num_parallel_tree":"1","num_trees":"500"},"iteration_indptr":[0,5,10,15,20,25,30,35,40,45,50,55,60,65,70,75,80,85,90,95,100,105,110,115,120,125,130,135,140,145,150,155,160,165,170,175,180,185,190,195,200,205,210,215,220,225,230,235,240,245,250,255,260,265,270,275,280,285,290,295,300,305,310,315,320,325,330,335,340,345,350,355,360,365,370,375,380,385,390,395,400,405,410,415,420,425,430,435,440,445,450,455,460,465,470,475,480,485,490,495,500],"tree_info":[0,1,2,3,4,0,1,2,3,4,0,1,2,3,4,0,1,2,3,4,0,1,2,3,4,0,1,2,3,4,0,1,2,3,4,0,1,2,3,4,0,1,2,3,4,0,1,2,3,4,0,1,2,3,4,0,1,2,3,4,0,1,2,3,4,0,1,2,3,4,0,1,2,3,4,0,1,2,3,4,0,1,2,3,4,0,1,2,3,4,0,1,2,3,4,0,1,2,3,4,0,1,2,3,4,0,1,2,3,4,0,1,2,3,4,0,1,2,3,4,0,1,2,3,4,0,1,2,3,4,0,1,2,3,4,0,1,2,3,4,0,1,2,3,4,0,1,2,3,4,0,1,2,3,4,0,1,2,3,4,0,1,2,3,4,0,1,2,3,4,0,1,2,3,4,0,1,2,3,4,0,1,2,3,4,0,1,2,3,4,0,1,2,3,4,0,1,2,3,4,0,1,2,3,4,0,1,2,3,4,0,1,2,3,4,0,1,2,3,4,0,1,2,3,4,0,1,2,3,4,0,1,2,3,4,0,1,2,3,4,0,1,2,3,4,0,1,2,3,4,0,1,2,3,4,0,1,2,3,4,0,1,2,3,4,0,1,2,3,4,0,1,2,3,4,0,1,2,3,4,0,1,2,3,4,0,1,2,3,4,0,1,2,3,4,0,1,2,3,4,0,1,2,3,4,0,1,2,3,4,0,1,2,3,4,0,1,2,3,4,0,1,2,3,4,0,1,2,3,4,0,1,2,3,4,0,1,2,3,4,0,1,2,3,4,0,1,2,3,4,0,1,2,3,4,0,1,2,3,4,0,1,2,3,4,0,1,2,3,4,0,1,2,3,4,0,1,2,3,4,0,1,2,3,4,0,1,2,3,4,0,1,2,3,4,0,1,2,3,4,0,1,2,3,4,0,1,2,3,4,0,1,2,3,4,0,1,2,3,4,0,1,2,3,4,0,1,2,3,4,0,1,2,3,4,0,1,2,3,4,0,1,2,3,4,0,1,2,3,4,0,1,2,3,4,0,1,2,3,4,0,1,2,3,4,0,1,2,3,4,0,1,2,3,4,0,1,2,3,4,0,1,2,3,4,0,1,2,3,4,0,1,2,3,4,0,1,2,3,4],"trees":[{"base_weights":[-1.3063994E-1,2.0035393E0,-5.828245E-1,-2.7693743E-1,2.5340784E-1,-6.06241E-1,1.2107573E-1,-5.2104007E-2,5.6161474E-2,1.1149387E-2,-6.1214317E-2],"categories":[],"categories_nodes":[],"categories_segments":[],"categories_sizes":[],"default_left":[0,0,0,0,0,0,0,0,0,0,0],"id":0,"left_children":[1,3,5,7,-1,9,-1,-1,-1,-1,-1],"loss_changes":[1.9930728E2,4.44048E1,7.882099E0,1.872635E0,0E0,7.8276443E-1,0E0,0E0,0E0,0E0,0E0],"parents":[2147483647,0,0,1,1,2,2,3,3,5,5],"right_children":[2,4,6,8,-1,10,-1,-1,-1,-1,-1],"split_conditions":[-9.359321E-1,6.571926E-1,1.9302548E0,4.6827275E-1,2.5340784E-1,-2.248404E0,1.2107573E-1,-5.2104007E-2,5.6161474E-2,1.1149387E-2,-6.1214317E-2],"split_indices":[726,4713,6061,11,0,62,0,0,0,0,0],"split_type":[0,0,0,0,0,0,0,0,0,0,0],"sum_hessian":[2.0431683E2,3.5121727E1,1.6919511E2,6.7189393E0,2.8402788E1,1.6766808E2,1.5270317E0,5.497314E0,1.2216253E0,1.2216253E0,1.6644646E2],"tree_param":{"num_deleted":"0","num_feature":"20530","num_nodes":"11","size_leaf_vector":"1"}},{"base_weights":[-3.590729E-1,-5.1798385E-1,1.4766697E0,-5.5095637E-1,1.5875022E-1,2.064824E0,-4.6929035E-2,-5.732357E-1,9.235429E-2,2.3423967E0,-3.237636E-2,-5.901655E-1,3.2516608E-1,2.5834787E-1,1.4138572E-2,4.636044E-2,-6.017804E-2,-3.831748E-2,1.0716845E-1],"categories":[],"categories_nodes":[],"categories_segments":[],"categories_sizes":[],"default_left":[0,0,0,0,0,0,0,0,0,0,0,0,0,0,0,0,0,0,0],"id":1,"left_children":[1,3,5,7,-1,9,-1,11,-1,13,-1,15,17,-1,-1,-1,-1,-1,-1],"loss_changes":[5.7157784E1,1.3277176E1,1.8892895E1,6.332165E0,0E0,8.854355E0,0E0,2.8479347E0,0E0,5.5040627E0,0E0,2.3811493E0,2.4594994E0,0E0,0E0,0E0,0E0,0E0,0E0],"parents":[2147483647,0,0,1,1,2,2,3,3,5,5,7,7,9,9,11,11,12,12],"right_children":[2,4,6,8,-1,10,-1,12,-1,14,-1,16,18,-1,-1,-1,-1,-1,-1],"split_conditions":[1.8912733E0,3.3090005E0,-1.8896036E-1,3.0668206E0,1.5875022E-1,1.2521193E0,-4.6929035E-2,1.8332366E0,9.235429E-2,1.0604728E0,-3.237636E-2,-2.397145E0,-5.0568396E-1,2.5834787E-1,1.4138572E-2,4.636044E-2,-6.017804E-2,-3.831748E-2,1.0716845E-1],"split_indices":[1956,914,2773,2738,0,428,0,13902,0,167,0,26,13,0,0,0,0,0,0],"split_type":[0,0,0,0,0,0,0,0,0,0,0,0,0,0,0,0,0,0,0],"sum_hessian":[1.9231194E2,1.7765138E2,1.4660551E1,1.7563914E2,2.0122325E0,1.121101E1,3.4495416E0,1.7362692E2,2.0122325E0,1.0061163E1,1.1498471E0,1.707523E2,2.8746178E0,8.911315E0,1.1498471E0,1.4373089E0,1.6931499E2,1.7247708E0,1.1498471E0],"tree_param":{"num_deleted":"0","num_feature":"20530","num_nodes":"19","size_leaf_vector":"1"}},{"base_weights":[5.2074575E-1,1.128763E0,-3.5281625E-1,1.5255374E0,-4.2756528E-1,-4.967603E-1,8.9611286E-1,-1.924834E-1,1.6618335E0,1.3607429E-1,-6.1426485E-1,9.251448E-1,-5.6595725E-1,-5.3181726E-2,1.6948085E-1,-5.8998466E-2,1.1808794E-1,1.7927777E0,7.3043936E-1,-6.476275E-2,1.0902553E-2,-3.5796843E-2,1.422654E-1,-6.0806614E-1,7.514902E-1,-1.0906155E-2,1.851164E0,-1.2896343E-1,1.5800926E-1,-6.408886E-1,4.468639E-1,1.0902553E-2,1.0430135E-1,-4.40196E-2,5.7601947E-2,1.882102E-1,-3.5796843E-2,1.1808794E-1,-5.7684053E-2,-6.6377915E-2,5.7601947E-2,1.0430135E-1,-3.5796843E-2],"categories":[],"categories_nodes":[],"categories_segments":[],"categories_sizes":[],"default_left":[0,0,0,0,0,0,0,0,0,0,0,0,0,0,0,0,0,0,0,0,0,0,0,0,0,0,0,0,0,0,0,0,0,0,0,0,0,0,0,0,0,0,0],"id":2,"left_children":[1,3,5,7,9,11,13,15,17,-1,19,21,23,-1,-1,-1,-1,25,27,-1,-1,-1,-1,29,31,33,35,37,-1,39,41,-1,-1,-1,-1,-1,-1,-1,-1,-1,-1,-1,-1],"loss_changes":[1.3611649E2,9.383351E1,1.943385E1,2.852716E1,1.133164E1,9.905418E0,1.3757061E1,6.01957E0,1.231488E1,0E0,7.74106E-1,3.5762796E0,5.535671E0,0E0,0E0,0E0,0E0,1.0262085E1,1.149051E1,0E0,0E0,0E0,0E0,3.3772163E0,5.011151E-1,1.2723953E0,7.1126404E0,5.731657E0,0E0,2.8052979E0,1.948412E0,0E0,0E0,0E0,0E0,0E0,0E0,0E0,0E0,0E0,0E0,0E0,0E0],"parents":[2147483647,0,0,1,1,2,2,3,3,4,4,5,5,6,6,7,7,8,8,10,10,11,11,12,12,17,17,18,18,23,23,24,24,25,25,26,26,27,27,29,29,30,30],"right_children":[2,4,6,8,10,12,14,16,18,-1,20,22,24,-1,-1,-1,-1,26,28,-1,-1,-1,-1,30,32,34,36,38,-1,40,42,-1,-1,-1,-1,-1,-1,-1,-1,-1,-1,-1,-1],"split_conditions":[3.917155E-1,1.0792023E0,7.2630787E-1,-7.5595355E-1,-1.0810528E0,-1.6800996E0,-3.6859572E-1,4.7478712E-1,3.9118356E-1,1.3607429E-1,2.2950556E0,3.113451E-3,2.3187013E0,-5.3181726E-2,1.6948085E-1,-5.8998466E-2,1.1808794E-1,-1.6220464E0,-5.441664E-2,-6.476275E-2,1.0902553E-2,-3.5796843E-2,1.422654E-1,2.4612193E0,-1.7936419E-1,1.1653767E0,1.3414348E0,-9.1655684E-1,1.5800926E-1,1.337361E0,2.7655369E-2,1.0902553E-2,1.0430135E-1,-4.40196E-2,5.7601947E-2,1.882102E-1,-3.5796843E-2,1.1808794E-1,-5.7684053E-2,-6.6377915E-2,5.7601947E-2,1.0430135E-1,-3.5796843E-2],"split_indices":[7045,4516,13603,3580,1801,15968,11098,3788,7289,0,46,49,13398,0,0,0,0,18897,7054,0,0,0,0,3657,0,0,661,19,0,3541,18,0,0,0,0,0,0,0,0,0,0,0,0],"split_type":[0,0,0,0,0,0,0,0,0,0,0,0,0,0,0,0,0,0,0,0,0,0,0,0,0,0,0,0,0,0,0,0,0,0,0,0,0,0,0,0,0,0,0],"sum_hessian":[2.5452223E2,1.49898E2,1.0462424E2,1.1946185E2,3.0436142E1,9.4352036E1,1.0272198E1,8.750391E0,1.10711464E2,2.2827106E0,2.815343E1,3.8045177E0,9.054752E1,3.8045177E0,6.46768E0,7.228584E0,1.5218071E0,9.6254295E1,1.4457168E1,2.7012075E1,1.1413553E0,1.1413553E0,2.6631625E0,8.826481E1,2.2827106E0,3.0436141E0,9.3210686E1,7.6090355E0,6.8481317E0,8.59821E1,2.2827106E0,1.1413553E0,1.1413553E0,1.9022589E0,1.1413553E0,9.206933E1,1.1413553E0,1.5218071E0,6.0872283E0,8.4840744E1,1.1413553E0,1.1413553E0,1.1413553E0],"tree_param":{"num_deleted":"0","num_feature":"20530","num_nodes":"43","size_leaf_vector":"1"}},{"base_weights":[1.4118304E-2,-4.8277918E-1,9.201681E-1,-5.3081673E-1,1.068785E0,1.5625744E0,-4.406027E-1,1.6817531E-1,-5.9487766E-1,-3.496269E-2,1.736599E-1,-5.3136226E-2,1.8337554E0,9.695845E-2,-5.561846E-1,1.2480569E0,-5.4610856E-2,-6.1083657E-1,5.2984733E-2,3.824388E-1,2.201473E0,9.011022E-3,-5.965009E-2,-3.496269E-2,1.8649182E-1,-6.1891396E-2,9.011022E-3,-3.9374277E-1,1.5128608E0,2.301238E0,2.3713506E-4,-5.1603463E-2,9.011022E-3,1.736599E-1,5.2984733E-2,2.3819017E-1,9.011022E-3],"categories":[],"categories_nodes":[],"categories_segments":[],"categories_sizes":[],"default_left":[0,0,0,0,0,0,0,0,0,0,0,0,0,0,0,0,0,0,0,0,0,0,0,0,0,0,0,0,0,0,0,0,0,0,0,0,0],"id":3,"left_children":[1,3,5,7,9,11,13,15,17,-1,-1,-1,19,-1,21,23,-1,25,-1,27,29,-1,-1,-1,-1,-1,-1,31,33,35,-1,-1,-1,-1,-1,-1,-1],"loss_changes":[9.683091E1,1.0921486E1,6.7274765E1,6.163719E0,4.873259E0,3.0481087E1,4.6479125E0,1.0052031E1,2.5541801E0,0E0,0E0,0E0,2.3829895E1,0E0,6.7736864E-1,5.7185163E0,0E0,7.5214005E-1,0E0,9.857334E0,8.040649E0,0E0,0E0,0E0,0E0,0E0,0E0,4.637704E-1,7.040882E-2,6.0424805E0,0E0,0E0,0E0,0E0,0E0,0E0,0E0],"parents":[2147483647,0,0,1,1,2,2,3,3,4,4,5,5,6,6,7,7,8,8,12,12,14,14,15,15,17,17,19,19,20,20,27,27,28,28,29,29],"right_children":[2,4,6,8,10,12,14,16,18,-1,-1,-1,20,-1,22,24,-1,26,-1,28,30,-1,-1,-1,-1,-1,-1,32,34,36,-1,-1,-1,-1,-1,-1,-1],"split_conditions":[4.144764E-1,1.688914E0,1.4741158E-1,-9.872261E-1,-5.0874203E-1,-4.8050252E-1,-1.4060626E0,-2.1382526E-1,1.7378377E0,-3.496269E-2,1.736599E-1,-5.3136226E-2,1.9034524E-1,9.695845E-2,-1.9859804E0,-5.763482E-1,-5.4610856E-2,1.9871746E0,5.2984733E-2,2.7269337E-1,1.4482964E0,9.011022E-3,-5.965009E-2,-3.496269E-2,1.8649182E-1,-6.1891396E-2,9.011022E-3,-2.0676269E-1,7.9361576E-1,5.3148043E-1,2.3713506E-4,-5.1603463E-2,9.011022E-3,1.736599E-1,5.2984733E-2,2.3819017E-1,9.011022E-3],"split_indices":[9478,8320,12367,12369,49,9921,17351,13853,1602,0,0,0,7289,0,3,774,0,318,0,10994,2447,0,0,0,0,0,0,1,0,893,0,0,0,0,0,0,0],"split_type":[0,0,0,0,0,0,0,0,0,0,0,0,0,0,0,0,0,0,0,0,0,0,0,0,0,0,0,0,0,0,0,0,0,0,0,0,0],"sum_hessian":[2.1309087E2,1.379198E2,7.517107E1,1.3441606E2,3.5037363E0,5.0963436E1,2.4207632E1,1.1148252E1,1.2326781E2,1.2740859E0,2.2296503E0,5.7333865E0,4.523005E1,1.2740859E0,2.2933546E1,4.140779E0,7.0074725E0,1.2199372E2,1.2740859E0,9.555644E0,3.5674404E1,1.2740859E0,2.165946E1,1.2740859E0,2.8666933E0,1.20719635E2,1.2740859E0,6.051908E0,3.5037363E0,3.40818E1,1.5926074E0,4.777822E0,1.2740859E0,2.2296503E0,1.2740859E0,3.2807713E1,1.2740859E0],"tree_param":{"num_deleted":"0","num_feature":"20530","num_nodes":"37","size_leaf_vector":"1"}},{"base_weights":[-1.9768324E-1,-5.4084516E-1,2.0914402E0,-5.684138E-1,6.933545E-1,-4.792607E-2,2.5164976E0,-5.8554155E-1,8.330362E-2,-3.936456E-2,1.6333224E-1,2.5973052E-1,5.754037E-2,-6.0288715E-1,2.910529E-1,-6.088028E-2,1.2071038E-2,-3.936456E-2,1.030097E-1],"categories":[],"categories_nodes":[],"categories_segments":[],"categories_sizes":[],"default_left":[0,0,0,0,0,0,0,0,0,0,0,0,0,0,0,0,0,0,0],"id":4,"left_children":[1,3,5,7,9,-1,11,13,-1,-1,-1,-1,-1,15,17,-1,-1,-1,-1],"loss_changes":[1.5948059E2,6.385792E0,3.014589E1,4.635563E0,5.034444E0,0E0,2.0954285E0,2.7800674E0,0E0,0E0,0E0,0E0,0E0,7.93911E-1,2.4286778E0,0E0,0E0,0E0,0E0],"parents":[2147483647,0,0,1,1,2,2,3,3,4,4,6,6,7,7,13,13,14,14],"right_children":[2,4,6,8,10,-1,12,14,-1,-1,-1,-1,-1,16,18,-1,-1,-1,-1],"split_conditions":[1.324663E0,1.65675E0,3.2471868E-1,2.298284E0,-8.2551247E-1,-4.792607E-2,9.219894E-1,3.4382348E0,8.330362E-2,-3.936456E-2,1.6333224E-1,2.5973052E-1,5.754037E-2,1.9176037E0,-1.5844652E-1,-6.088028E-2,1.2071038E-2,-3.936456E-2,1.030097E-1],"split_indices":[618,3166,13556,8706,49,0,127,17680,0,0,0,0,0,85,1,0,0,0,0],"split_type":[0,0,0,0,0,0,0,0,0,0,0,0,0,0,0,0,0,0,0],"sum_hessian":[2.0058037E2,1.7509557E2,2.5484798E1,1.7179753E2,3.2980328E0,3.5978541E0,2.1886946E1,1.7029842E2,1.4991058E0,1.7989271E0,1.4991058E0,2.068766E1,1.1992847E0,1.6730022E2,2.9982116E0,1.6610092E2,1.1992847E0,1.7989271E0,1.1992847E0],"tree_param":{"num_deleted":"0","num_feature":"20530","num_nodes":"19","size_leaf_vector":"1"}},{"base_weights":[-1.24296226E-1,1.6248863E0,-5.726015E-1,-2.693855E-1,1.9901006E0,-6.0310233E-2,8.4132725E-1,-5.1553007E-2,5.511573E-2,6.164212E-2,2.0159784E-1,-3.2670774E-2,1.4719726E-1],"categories":[],"categories_nodes":[],"categories_segments":[],"categories_sizes":[],"default_left":[0,0,0,0,0,0,0,0,0,0,0,0,0],"id":5,"left_children":[1,3,5,7,9,-1,11,-1,-1,-1,-1,-1,-1],"loss_changes":[1.5978392E2,2.9307098E1,7.493305E0,1.819701E0,9.3078613E-4,0E0,3.3081138E0,0E0,0E0,0E0,0E0,0E0,0E0],"parents":[2147483647,0,0,1,1,2,2,3,3,4,4,6,6],"right_children":[2,4,6,8,10,-1,12,-1,-1,-1,-1,-1,-1],"split_conditions":[-9.359321E-1,6.571926E-1,1.5017003E0,1.0530127E0,-1.4501137E0,-6.0310233E-2,6.2704194E-1,-5.1553007E-2,5.511573E-2,6.164212E-2,2.0159784E-1,-3.2670774E-2,1.4719726E-1],"split_indices":[726,4713,18032,131,21,0,52,0,0,0,0,0,0],"split_type":[0,0,0,0,0,0,0,0,0,0,0,0,0],"sum_hessian":[2.0157591E2,4.0587696E1,1.609882E2,6.6028447E0,3.3984848E1,1.581501E2,2.8381047E0,5.365142E0,1.2377026E0,1.0873078E0,3.289754E1,1.1640619E0,1.6740429E0],"tree_param":{"num_deleted":"0","num_feature":"20530","num_nodes":"13","size_leaf_vector":"1"}},{"base_weights":[-3.4657308E-1,-5.0697446E-1,1.2474539E0,-5.4096156E-1,1.3870698E-1,1.6862481E0,-4.6175342E-2,-5.640188E-1,8.3617024E-2,1.9384435E0,-3.499647E-2,-5.816958E-1,3.3530495E-1,5.381555E-2,2.0455979E-1,-5.9379637E-2,3.458051E-2,-3.7073556E-2,1.02892555E-1],"categories":[],"categories_nodes":[],"categories_segments":[],"categories_sizes":[],"default_left":[0,0,0,0,0,0,0,0,0,0,0,0,0,0,0,0,0,0,0],"id":6,"left_children":[1,3,5,7,-1,9,-1,11,-1,13,-1,15,17,-1,-1,-1,-1,-1,-1],"loss_changes":[4.8433723E1,1.1730652E1,1.3814632E1,5.815151E0,0E0,7.8912582E0,0E0,2.835781E0,0E0,7.973633E-1,0E0,2.037819E0,2.2602777E0,0E0,0E0,0E0,0E0,0E0,0E0],"parents":[2147483647,0,0,1,1,2,2,3,3,5,5,7,7,9,9,11,11,12,12],"right_children":[2,4,6,8,-1,10,-1,12,-1,14,-1,16,18,-1,-1,-1,-1,-1,-1],"split_conditions":[1.8912733E0,3.3090005E0,-5.3143364E-1,3.0668206E0,1.3870698E-1,6.4957523E-1,-4.6175342E-2,1.8215882E0,8.3617024E-2,-8.514389E-1,-3.499647E-2,2.1993272E0,3.023329E-1,5.381555E-2,2.0455979E-1,-5.9379637E-2,3.458051E-2,-3.7073556E-2,1.02892555E-1],"split_indices":[1956,914,15882,2738,0,510,0,17358,0,511,0,9913,40,0,0,0,0,0,0],"split_type":[0,0,0,0,0,0,0,0,0,0,0,0,0,0,0,0,0,0,0],"sum_hessian":[1.8595447E2,1.6957289E2,1.6381575E1,1.6728548E2,2.2874155E0,1.3045834E1,3.335742E0,1.6511147E2,2.1740067E0,1.1650833E1,1.3950005E0,1.6227498E2,2.8364828E0,1.2562641E0,1.0394568E1,1.605403E2,1.734685E0,1.6363447E0,1.200138E0],"tree_param":{"num_deleted":"0","num_feature":"20530","num_nodes":"19","size_leaf_vector":"1"}},{"base_weights":[4.7279525E-1,9.8795825E-1,-3.3712175E-1,1.3117251E0,-3.888454E-1,-4.7980484E-1,8.054612E-1,-2.5166428E-1,1.4137535E0,-5.9942126E-1,8.3867496E-1,8.3394367E-1,-5.4939187E-1,-5.1736653E-2,1.4641187E-1,9.5779136E-2,-5.731486E-2,1.5186149E0,6.3564634E-1,1.0834206E-2,-6.3420214E-2,1.2536593E-1,-3.4216728E-2,-3.5053596E-2,1.261759E-1,-6.028376E-1,4.892739E-1,1.548792E0,-3.9203543E-2,-5.439458E-2,1.0884632E0,3.2527086E-1,-6.3725555E-1,1.1859391E-1,-4.2700645E-2,4.8426962E-3,1.5873638E-1,-4.3476846E-2,1.410034E-1,9.650765E-2,-3.8809363E-2,-6.492274E-2,1.14777675E-2],"categories":[],"categories_nodes":[],"categories_segments":[],"categories_sizes":[],"default_left":[0,0,0,0,0,0,0,0,0,0,0,0,0,0,0,0,0,0,0,0,0,0,0,0,0,0,0,0,0,0,0,0,0,0,0,0,0,0,0,0,0,0,0],"id":7,"left_children":[1,3,5,7,9,11,13,15,17,19,21,23,25,-1,-1,-1,-1,27,29,-1,-1,-1,-1,-1,-1,31,33,35,-1,-1,37,39,41,-1,-1,-1,-1,-1,-1,-1,-1,-1,-1],"loss_changes":[1.0991554E2,7.218155E1,1.7154356E1,2.1156097E1,8.614663E0,8.874432E0,1.1031318E1,3.9852185E0,9.035095E0,7.424784E-1,2.8850245E0,2.9902763E0,5.181896E0,0E0,0E0,0E0,0E0,6.793167E0,9.285479E0,0E0,0E0,0E0,0E0,0E0,0E0,2.8960762E0,3.6088529E0,6.0471954E0,0E0,0E0,6.537036E0,2.050463E0,8.082962E-1,0E0,0E0,0E0,0E0,0E0,0E0,0E0,0E0,0E0,0E0],"parents":[2147483647,0,0,1,1,2,2,3,3,4,4,5,5,6,6,7,7,8,8,9,9,10,10,11,11,12,12,17,17,18,18,25,25,26,26,27,27,30,30,31,31,32,32],"right_children":[2,4,6,8,10,12,14,16,18,20,22,24,26,-1,-1,-1,-1,28,30,-1,-1,-1,-1,-1,-1,32,34,36,-1,-1,38,40,42,-1,-1,-1,-1,-1,-1,-1,-1,-1,-1],"split_conditions":[3.917155E-1,9.3092126E-1,7.2630787E-1,-8.457367E-1,8.875626E-2,-1.6800996E0,-3.6859572E-1,-1.65376E-1,3.835698E-1,-1.9048244E0,3.0750144E-1,3.113451E-3,2.065231E0,-5.1736653E-2,1.4641187E-1,9.5779136E-2,-5.731486E-2,1.5336491E0,-3.4970242E-1,1.0834206E-2,-6.3420214E-2,1.2536593E-1,-3.4216728E-2,-3.5053596E-2,1.261759E-1,-1.7885764E-1,-2.5093868E-1,-1.3025048E0,-3.9203543E-2,-5.439458E-2,-9.4235927E-1,-5.376011E-1,3.0319262E0,1.1859391E-1,-4.2700645E-2,4.8426962E-3,1.5873638E-1,-4.3476846E-2,1.410034E-1,9.650765E-2,-3.8809363E-2,-6.492274E-2,1.14777675E-2],"split_indices":[7045,10474,13603,3580,18278,15968,11098,649,13374,280,0,49,4641,0,0,0,0,8089,19054,0,0,0,0,0,0,9523,81,20067,0,0,6482,0,702,0,0,0,0,0,0,0,0,0,0],"split_type":[0,0,0,0,0,0,0,0,0,0,0,0,0,0,0,0,0,0,0,0,0,0,0,0,0,0,0,0,0,0,0,0,0,0,0,0,0,0,0,0,0,0,0],"sum_hessian":[2.61637E2,1.5978372E2,1.0185328E2,1.2940121E2,3.038251E1,9.106177E1,1.0791512E1,7.8376446E0,1.2156357E2,2.6370453E1,4.012057E0,4.0282044E0,8.703356E1,3.658468E0,7.133044E0,1.2302068E0,6.6074376E0,1.06288E2,1.527556E1,1.1361289E0,2.5234324E1,2.9231179E0,1.0889388E0,1.1167972E0,2.9114072E0,8.3173386E1,3.8601785E0,1.0482182E2,1.4661828E0,4.1814904E0,1.109407E1,2.6719308E0,8.050146E1,2.025702E0,1.8344765E0,2.6837718E0,1.02138054E2,1.8724662E0,9.221604E0,1.2225724E0,1.4493582E0,7.9374565E1,1.1268902E0],"tree_param":{"num_deleted":"0","num_feature":"20530","num_nodes":"43","size_leaf_vector":"1"}},{"base_weights":[1.4040915E-2,-4.6922198E-1,8.081206E-1,-5.181973E-1,9.577545E-1,1.315184E0,-4.2761713E-1,1.6126238E-1,-5.8390605E-1,-3.3990692E-2,1.5030758E-1,-5.2196708E-2,1.5193088E0,8.870718E-2,-5.4532355E-1,-5.3490438E-2,1.1019776E0,-6.005259E-1,5.2250117E-2,5.644545E-3,1.7247527E0,-5.8722097E-2,1.0712923E-2,-3.4075808E-2,1.5962455E-1,-6.089827E-2,1.0834401E-2,1.2010743E-1,-5.1531803E-2,1.8063898E0,-3.7571244E-2,-3.4787636E-2,1.8776016E-1],"categories":[],"categories_nodes":[],"categories_segments":[],"categories_sizes":[],"default_left":[0,0,0,0,0,0,0,0,0,0,0,0,0,0,0,0,0,0,0,0,0,0,0,0,0,0,0,0,0,0,0,0,0],"id":8,"left_children":[1,3,5,7,9,11,13,15,17,-1,-1,-1,19,-1,21,-1,23,25,-1,27,29,-1,-1,-1,-1,-1,-1,-1,-1,31,-1,-1,-1],"loss_changes":[8.224437E1,9.8088665E0,5.1365295E1,5.874977E0,3.8882709E0,2.2443573E1,4.2508936E0,8.579879E0,2.4887238E0,0E0,0E0,0E0,1.622802E1,0E0,6.9061995E-1,0E0,4.477317E0,7.6732635E-1,0E0,5.129941E0,8.561859E0,0E0,0E0,0E0,0E0,0E0,0E0,0E0,0E0,7.468338E0,0E0,0E0,0E0],"parents":[2147483647,0,0,1,1,2,2,3,3,4,4,5,5,6,6,7,7,8,8,12,12,14,14,16,16,17,17,19,19,20,20,29,29],"right_children":[2,4,6,8,10,12,14,16,18,-1,-1,-1,20,-1,22,-1,24,26,-1,28,30,-1,-1,-1,-1,-1,-1,-1,-1,32,-1,-1,-1],"split_conditions":[4.144764E-1,1.688914E0,1.4741158E-1,-9.872261E-1,-5.0874203E-1,-4.8050252E-1,-1.4060626E0,3.6984017E-1,3.581873E0,-3.3990692E-2,1.5030758E-1,-5.2196708E-2,-1.256573E-2,8.870718E-2,1.4199246E0,-5.3490438E-2,-2.7862224E-1,5.3648515E0,5.2250117E-2,-8.538034E-1,1.529046E0,-5.8722097E-2,1.0712923E-2,-3.4075808E-2,1.5962455E-1,-6.089827E-2,1.0834401E-2,1.2010743E-1,-5.1531803E-2,-1.3081471E0,-3.7571244E-2,-3.4787636E-2,1.8776016E-1],"split_indices":[9478,8320,12367,12369,49,9921,17351,16922,13931,0,0,0,18341,0,19389,0,217,2937,0,3141,9811,0,0,0,0,0,0,0,0,18899,0,0,0],"split_type":[0,0,0,0,0,0,0,0,0,0,0,0,0,0,0,0,0,0,0,0,0,0,0,0,0,0,0,0,0,0,0,0,0],"sum_hessian":[2.123299E2,1.3225247E2,8.007742E1,1.2847977E2,3.772701E0,5.6733524E1,2.3343899E1,1.1201086E1,1.1727869E2,1.2277645E0,2.5449367E0,5.5175686E0,5.1215954E1,1.3811556E0,2.1962742E1,6.6851754E0,4.5159106E0,1.1599352E2,1.2851638E0,6.2434063E0,4.497255E1,2.0731447E1,1.2312957E0,1.2315822E0,3.2843282E0,1.1476529E2,1.228231E0,1.4987653E0,4.744641E0,4.3424797E1,1.5477536E0,1.2652068E0,4.2159588E1],"tree_param":{"num_deleted":"0","num_feature":"20530","num_nodes":"33","size_leaf_vector":"1"}},{"base_weights":[-1.8817754E-1,-5.297405E-1,1.6939107E0,-5.5816466E-1,6.4181197E-1,-4.693519E-2,1.986099E0,-5.759228E-1,7.7434294E-2,-3.8647916E-2,1.4512515E-1,4.9187277E-2,2.0443487E-1,-5.939296E-1,2.8220573E-1,-6.0014527E-2,1.4292586E-2,9.796947E-2,-3.894421E-2],"categories":[],"categories_nodes":[],"categories_segments":[],"categories_sizes":[],"default_left":[0,0,0,0,0,0,0,0,0,0,0,0,0,0,0,0,0,0,0],"id":9,"left_children":[1,3,5,7,9,-1,11,13,-1,-1,-1,-1,-1,15,17,-1,-1,-1,-1],"loss_changes":[1.27966415E2,5.954838E0,2.0274101E1,4.3412933E0,4.261566E0,0E0,1.3575516E0,2.6867218E0,0E0,0E0,0E0,0E0,0E0,8.1858444E-1,2.2687595E0,0E0,0E0,0E0,0E0],"parents":[2147483647,0,0,1,1,2,2,3,3,4,4,6,6,7,7,13,13,14,14],"right_children":[2,4,6,8,10,-1,12,14,-1,-1,-1,-1,-1,16,18,-1,-1,-1,-1],"split_conditions":[1.324663E0,1.65675E0,3.2471868E-1,2.298284E0,-8.2551247E-1,-4.693519E-2,2.071676E-1,3.4382348E0,7.7434294E-2,-3.8647916E-2,1.4512515E-1,4.9187277E-2,2.0443487E-1,2.2124803E0,-1.0346206E-1,-6.0014527E-2,1.4292586E-2,9.796947E-2,-3.894421E-2],"split_indices":[618,3166,13556,8706,49,0,137,17680,0,0,0,0,0,13765,6,0,0,0,0],"split_type":[0,0,0,0,0,0,0,0,0,0,0,0,0,0,0,0,0,0,0],"sum_hessian":[1.9666472E2,1.6706429E2,2.9600431E1,1.6361816E2,3.4461284E0,3.450175E0,2.6150257E1,1.6202664E2,1.5915115E0,1.7480215E0,1.6981068E0,1.3355216E0,2.4814735E1,1.5899814E2,3.0285127E0,1.5785211E2,1.1460161E0,1.2606827E0,1.76783E0],"tree_param":{"num_deleted":"0","num_feature":"20530","num_nodes":"19","size_leaf_vector":"1"}},{"base_weights":[-1.18353255E-1,1.3780316E0,-5.629416E-1,-2.605154E-1,1.6540582E0,-5.9453E-2,7.7043486E-1,-5.113262E-2,6.72457E-2,1.6746822E-1,5.388991E-2,-3.189928E-2,1.3096094E-1],"categories":[],"categories_nodes":[],"categories_segments":[],"categories_sizes":[],"default_left":[0,0,0,0,0,0,0,0,0,0,0,0,0],"id":10,"left_children":[1,3,5,7,9,-1,11,-1,-1,-1,-1,-1,-1],"loss_changes":[1.328578E2,2.1130028E1,6.9347878E0,2.089964E0,1.4648438E-3,0E0,2.7639093E0,0E0,0E0,0E0,0E0,0E0,0E0],"parents":[2147483647,0,0,1,1,2,2,3,3,4,4,6,6],"right_children":[2,4,6,8,10,-1,12,-1,-1,-1,-1,-1,-1],"split_conditions":[-9.359321E-1,6.571926E-1,1.5017003E0,7.2796005E-1,2.1631746E0,-5.9453E-2,6.2704194E-1,-5.113262E-2,6.72457E-2,1.6746822E-1,5.388991E-2,-3.189928E-2,1.3096094E-1],"split_indices":[726,4713,18032,293,306,0,52,0,0,0,0,0,0],"split_type":[0,0,0,0,0,0,0,0,0,0,0,0,0],"sum_hessian":[1.9753743E2,4.4765892E1,1.5277153E2,6.4620605E0,3.8303833E1,1.4977734E2,2.9941883E0,5.4491143E0,1.0129462E0,3.7115665E1,1.1881661E0,1.1264703E0,1.8677181E0],"tree_param":{"num_deleted":"0","num_feature":"20530","num_nodes":"13","size_leaf_vector":"1"}},{"base_weights":[-3.347404E-1,-4.9629897E-1,1.0852405E0,-5.6689113E-1,4.0851834E-1,1.4295939E0,-4.5181096E-2,-5.8628887E-2,3.9090213E-1,1.6588949E-1,-5.178274E-2,1.6225395E0,-3.4261093E-2,-3.5887208E-2,1.13451876E-1,1.7099372E-1,4.6561085E-2],"categories":[],"categories_nodes":[],"categories_segments":[],"categories_sizes":[],"default_left":[0,0,0,0,0,0,0,0,0,0,0,0,0,0,0,0,0],"id":11,"left_children":[1,3,5,7,9,11,-1,-1,13,-1,-1,15,-1,-1,-1,-1,-1],"loss_changes":[4.187248E1,1.0608112E1,1.0553738E1,3.0367851E0,1.5150339E1,5.867279E0,0E0,0E0,2.414154E0,0E0,0E0,6.378517E-1,0E0,0E0,0E0,0E0,0E0],"parents":[2147483647,0,0,1,1,2,2,3,3,4,4,5,5,8,8,11,11],"right_children":[2,4,6,8,10,12,-1,-1,14,-1,-1,16,-1,-1,-1,-1,-1],"split_conditions":[1.8912733E0,1.1629311E0,-5.3143364E-1,3.676972E0,-2.8903133E-1,6.4957523E-1,-4.5181096E-2,-5.8628887E-2,5.696864E-1,1.6588949E-1,-5.178274E-2,5.1734436E-1,-3.4261093E-2,-3.5887208E-2,1.13451876E-1,1.7099372E-1,4.6561085E-2],"split_indices":[1956,2250,15882,1867,20405,510,0,0,4,0,0,1685,0,0,0,0,0],"split_type":[0,0,0,0,0,0,0,0,0,0,0,0,0,0,0,0,0],"sum_hessian":[1.7917464E2,1.614555E2,1.7719135E1,1.5011711E2,1.1338385E1,1.4533119E1,3.1860163E0,1.475174E2,2.599724E0,4.4887285E0,6.8496566E0,1.3182364E1,1.3507546E0,1.5521339E0,1.04759E0,1.1812053E1,1.3703117E0],"tree_param":{"num_deleted":"0","num_feature":"20530","num_nodes":"17","size_leaf_vector":"1"}},{"base_weights":[4.3312362E-1,8.365591E-1,-4.0774286E-1,1.0918539E0,-3.3792531E-1,-5.384461E-1,6.955093E-1,-2.5787947E-1,1.1968459E0,-5.5782163E-1,1.02591805E-1,-6.209677E-1,6.5212004E-2,1.2450904E-1,-4.77045E-2,-5.824505E-2,1.0073105E-1,1.2544373E0,5.019335E-2,5.0139513E-2,-6.2253863E-2,-6.3473105E-2,1.1508745E-2,-5.5628892E-2,1.1573278E-1,1.3038968E0,2.2633445E-1,-5.370092E-2,1.0039043E-1,-3.9887138E-2,1.3276537E-1,-5.0492883E-2,1.055722E-1],"categories":[],"categories_nodes":[],"categories_segments":[],"categories_sizes":[],"default_left":[0,0,0,0,0,0,0,0,0,0,0,0,0,0,0,0,0,0,0,0,0,0,0,0,0,0,0,0,0,0,0,0,0],"id":12,"left_children":[1,3,5,7,9,11,13,15,17,19,-1,21,23,-1,-1,-1,-1,25,27,-1,-1,-1,-1,-1,-1,29,31,-1,-1,-1,-1,-1,-1],"loss_changes":[9.081152E1,5.4504784E1,1.2939964E1,2.1359497E1,1.0469618E1,3.9496422E0,6.8231363E0,5.3271275E0,9.050461E0,2.3046818E0,0E0,7.73386E-1,7.6637053E0,0E0,0E0,0E0,0E0,6.3845673E0,4.818529E0,0E0,0E0,0E0,0E0,0E0,0E0,5.5910645E0,4.9238153E0,0E0,0E0,0E0,0E0,0E0,0E0],"parents":[2147483647,0,0,1,1,2,2,3,3,4,4,5,5,6,6,7,7,8,8,9,9,11,11,12,12,17,17,18,18,25,25,26,26],"right_children":[2,4,6,8,10,12,14,16,18,20,-1,22,24,-1,-1,-1,-1,26,28,-1,-1,-1,-1,-1,-1,30,32,-1,-1,-1,-1,-1,-1],"split_conditions":[4.5359397E-1,8.7961835E-1,7.2630787E-1,-8.1736964E-1,8.3481276E-1,5.5076563E-1,2.0995426E-1,7.7826804E-1,1.3570795E0,-9.999281E-1,1.02591805E-1,1.2033195E0,-8.1376754E-2,1.2450904E-1,-4.77045E-2,-5.824505E-2,1.0073105E-1,6.580401E-1,5.03901E-1,5.0139513E-2,-6.2253863E-2,-6.3473105E-2,1.1508745E-2,-5.5628892E-2,1.1573278E-1,-1.7792903E0,-3.5751164E-1,-5.370092E-2,1.0039043E-1,-3.9887138E-2,1.3276537E-1,-5.0492883E-2,1.055722E-1],"split_indices":[7045,10474,13603,3580,15914,4486,4109,1748,10384,18363,0,5483,6384,0,0,0,0,2187,3631,0,0,0,0,0,0,11710,618,0,0,0,0,0,0],"split_type":[0,0,0,0,0,0,0,0,0,0,0,0,0,0,0,0,0,0,0,0,0,0,0,0,0,0,0,0,0,0,0,0,0],"sum_hessian":[2.656892E2,1.7954922E2,8.613999E1,1.4754755E2,3.200168E1,7.747357E1,8.666418E0,1.0543865E1,1.3700368E2,2.8067303E1,3.9343777E0,6.8131195E1,9.342376E0,5.858604E0,2.8078134E0,8.820654E0,1.7232112E0,1.3036214E2,6.6415343E0,1.2276114E0,2.6839691E1,6.701574E1,1.1154541E0,6.2667356E0,3.0756402E0,1.2412266E2,6.2394824E0,4.3810415E0,2.260493E0,1.4906582E0,1.22632E2,3.5237913E0,2.7156913E0],"tree_param":{"num_deleted":"0","num_feature":"20530","num_nodes":"33","size_leaf_vector":"1"}},{"base_weights":[1.3723673E-2,-4.5638227E-1,7.20528E-1,3.060265E-1,-5.4862446E-1,1.1367829E0,-4.1502476E-1,1.063452E0,-4.1352534E-1,7.022297E-2,-5.7382405E-1,-5.1267393E-2,1.2990941E0,-5.7819284E-2,5.382452E-1,1.4846472E-1,-3.6213495E-2,1.7732052E-2,-5.21761E-2,-5.910684E-1,6.530727E-2,1.2544708E-2,1.4543525E0,-3.6229443E-2,1.21782E-1,-5.9963793E-2,1.7592376E-2,1.0982324E-1,-5.0370485E-2,1.5168986E0,-3.665832E-2,-3.3986308E-2,1.5712912E-1],"categories":[],"categories_nodes":[],"categories_segments":[],"categories_sizes":[],"default_left":[0,0,0,0,0,0,0,0,0,0,0,0,0,0,0,0,0,0,0,0,0,0,0,0,0,0,0,0,0,0,0,0,0],"id":13,"left_children":[1,3,5,7,9,11,13,15,17,-1,19,-1,21,-1,23,-1,-1,-1,-1,25,-1,27,29,-1,-1,-1,-1,-1,-1,31,-1,-1,-1],"loss_changes":[7.0513145E1,9.13205E0,4.0535908E1,8.287432E0,3.9984283E0,1.7342941E1,3.961555E0,4.9179115E0,6.107899E-1,0E0,2.7632942E0,0E0,1.1366112E1,0E0,2.857203E0,0E0,0E0,0E0,0E0,8.3724594E-1,0E0,4.558397E0,6.347252E0,0E0,0E0,0E0,0E0,0E0,0E0,5.518463E0,0E0,0E0,0E0],"parents":[2147483647,0,0,1,1,2,2,3,3,4,4,5,5,6,6,7,7,8,8,10,10,12,12,14,14,19,19,21,21,22,22,29,29],"right_children":[2,4,6,8,10,12,14,16,18,-1,20,-1,22,-1,24,-1,-1,-1,-1,26,-1,28,30,-1,-1,-1,-1,-1,-1,32,-1,-1,-1],"split_conditions":[4.144764E-1,-9.872261E-1,1.4741158E-1,-7.026741E-1,-1.6729933E0,-4.8050252E-1,1.1070459E0,7.223235E-1,-1.018507E0,7.022297E-2,1.8942097E0,-5.1267393E-2,-1.256573E-2,-5.7819284E-2,9.8875135E-2,1.4846472E-1,-3.6213495E-2,1.7732052E-2,-5.21761E-2,2.3688426E0,6.530727E-2,-8.538034E-1,1.529046E0,-3.6229443E-2,1.21782E-1,-5.9963793E-2,1.7592376E-2,1.0982324E-1,-5.0370485E-2,-1.3081471E0,-3.665832E-2,-3.3986308E-2,1.5712912E-1],"split_indices":[9478,12369,12367,10189,8682,9921,11790,1646,912,0,8005,0,18341,0,82,0,0,0,0,4104,0,3141,9811,0,0,0,0,0,0,18899,0,0,0],"split_type":[0,0,0,0,0,0,0,0,0,0,0,0,0,0,0,0,0,0,0,0,0,0,0,0,0,0,0,0,0,0,0,0,0],"sum_hessian":[2.1022487E2,1.2646526E2,8.3759605E1,1.339921E1,1.1306605E2,6.1291245E1,2.246836E1,6.294969E0,7.1042414E0,1.702268E0,1.11363785E2,5.2975273E0,5.5993717E1,1.9520554E1,2.9478054E0,4.8272963E0,1.4676726E0,1.0010955E0,6.1031456E0,1.1033129E2,1.0324931E0,6.145965E0,4.984775E1,1.4685864E0,1.4792191E0,1.0932798E2,1.0033127E0,1.6173347E0,4.5286303E0,4.8353844E1,1.4939067E0,1.2268091E0,4.7127037E1],"tree_param":{"num_deleted":"0","num_feature":"20530","num_nodes":"33","size_leaf_vector":"1"}},{"base_weights":[-1.7945366E-1,-5.365245E-1,1.3544132E0,-5.607122E-1,7.470708E-1,-4.866172E-2,1.6187688E0,-5.9220124E-2,1.680368E-2,1.06570564E-1,1.058298E-2,1.7005645E-1,-3.234972E-2,1.384373E-1,-5.1292073E-2],"categories":[],"categories_nodes":[],"categories_segments":[],"categories_sizes":[],"default_left":[0,0,0,0,0,0,0,0,0,0,0,0,0,0,0],"id":14,"left_children":[1,3,5,7,9,-1,11,-1,13,-1,-1,-1,-1,-1,-1],"loss_changes":[1.0632374E2,5.2967377E0,1.86447E1,2.8246078E0,5.6853664E-1,0E0,5.6839905E0,0E0,7.2120147E0,0E0,0E0,0E0,0E0,0E0,0E0],"parents":[2147483647,0,0,1,1,2,2,3,3,4,4,6,6,8,8],"right_children":[2,4,6,8,10,-1,12,-1,14,-1,-1,-1,-1,-1,-1],"split_conditions":[1.2690568E0,1.6390613E0,-3.5275232E-2,1.2828424E0,7.993741E-1,-4.866172E-2,6.162872E-1,-5.9220124E-2,-6.362749E-1,1.06570564E-1,1.058298E-2,1.7005645E-1,-3.234972E-2,1.384373E-1,-5.1292073E-2],"split_indices":[1079,12296,11055,9584,7,0,2421,0,8743,0,0,0,0,0,0],"split_type":[0,0,0,0,0,0,0,0,0,0,0,0,0,0,0],"sum_hessian":[1.9180125E2,1.5611034E2,3.569091E1,1.537758E2,2.3345444E0,4.3758397E0,3.131507E1,1.4580061E2,7.975191E0,1.1173747E0,1.2171698E0,3.0168991E1,1.1460798E0,1.7762166E0,6.1989746E0],"tree_param":{"num_deleted":"0","num_feature":"20530","num_nodes":"15","size_leaf_vector":"1"}},{"base_weights":[-1.1307057E-1,1.2016295E0,-5.538015E-1,1.4063576E0,-3.6358178E-1,-5.86465E-2,7.078298E-1,3.6481973E-3,1.4499715E-1,1.6437259E-2,-4.9064618E-2,-3.1071423E-2,1.1738571E-1],"categories":[],"categories_nodes":[],"categories_segments":[],"categories_sizes":[],"default_left":[0,0,0,0,0,0,0,0,0,0,0,0,0],"id":15,"left_children":[1,3,5,7,9,-1,11,-1,-1,-1,-1,-1,-1],"loss_changes":[1.127573E2,1.6176155E1,6.4138565E0,2.5422058E0,5.132804E-1,0E0,2.3235686E0,0E0,0E0,0E0,0E0,0E0,0E0],"parents":[2147483647,0,0,1,1,2,2,3,3,4,4,6,6],"right_children":[2,4,6,8,10,-1,12,-1,-1,-1,-1,-1,-1],"split_conditions":[-9.359321E-1,5.609424E-1,1.5017003E0,-9.559275E-1,-6.171612E-1,-5.86465E-2,6.2704194E-1,3.6481973E-3,1.4499715E-1,1.6437259E-2,-4.9064618E-2,-3.1071423E-2,1.1738571E-1],"split_indices":[726,4674,18032,16465,2384,0,52,0,0,0,0,0,0],"split_type":[0,0,0,0,0,0,0,0,0,0,0,0,0],"sum_hessian":[1.9245226E2,4.7884964E1,1.4456729E2,4.2435883E1,5.4490814E0,1.4144055E2,3.126735E0,1.3660417E0,4.106984E1,1.0000877E0,4.4489937E0,1.0861431E0,2.040592E0],"tree_param":{"num_deleted":"0","num_feature":"20530","num_nodes":"13","size_leaf_vector":"1"}},{"base_weights":[-3.2399404E-1,-4.8625824E-1,9.6106106E-1,-5.588599E-1,3.8091427E-1,1.2427123E0,-4.4201735E-2,-5.7904333E-2,3.7478587E-1,-5.08855E-2,1.4298877E-1,1.3978003E0,-3.3456367E-2,-3.4947854E-2,1.0396737E-1,1.5947763E-2,1.4745806E-1],"categories":[],"categories_nodes":[],"categories_segments":[],"categories_sizes":[],"default_left":[0,0,0,0,0,0,0,0,0,0,0,0,0,0,0,0,0],"id":16,"left_children":[1,3,5,7,9,11,-1,-1,13,-1,-1,15,-1,-1,-1,-1,-1],"loss_changes":[3.6570736E1,9.933296E0,8.353134E0,2.909336E0,1.2415274E1,4.5548553E0,0E0,0E0,2.1115398E0,0E0,0E0,1.2296104E0,0E0,0E0,0E0,0E0,0E0],"parents":[2147483647,0,0,1,1,2,2,3,3,4,4,5,5,8,8,11,11],"right_children":[2,4,6,8,10,12,-1,-1,14,-1,-1,16,-1,-1,-1,-1,-1],"split_conditions":[1.8912733E0,1.1629311E0,-5.3143364E-1,3.676972E0,6.6745174E-1,6.4957523E-1,-4.4201735E-2,-5.7904333E-2,5.696864E-1,-5.08855E-2,1.4298877E-1,-1.5421548E0,-3.3456367E-2,-3.4947854E-2,1.0396737E-1,1.5947763E-2,1.4745806E-1],"split_indices":[1956,2250,15882,1867,1457,510,0,0,4,0,0,5040,0,0,0,0,0],"split_type":[0,0,0,0,0,0,0,0,0,0,0,0,0,0,0,0,0],"sum_hessian":[1.7214255E2,1.5339494E2,1.8747608E1,1.4187259E2,1.1522354E1,1.5708593E1,3.039016E0,1.3924226E2,2.6303182E0,6.512861E0,5.0094934E0,1.4405899E1,1.3026942E0,1.4859968E0,1.1443213E0,1.0207149E0,1.3385183E1],"tree_param":{"num_deleted":"0","num_feature":"20530","num_nodes":"17","size_leaf_vector":"1"}},{"base_weights":[4.0044448E-1,-3.9663503E-1,7.58062E-1,4.3769062E-1,-5.8428806E-1,1.0812314E0,4.708849E-2,9.568992E-1,-3.012897E-1,-6.2389832E-2,5.94162E-2,1.1446096E0,-3.8986698E-1,-3.277913E-1,8.623266E-1,1.1475755E-1,-3.239598E-2,4.479764E-2,-5.3275514E-2,-4.332937E-2,1.1724494E0,8.85756E-3,-5.1939856E-2,-5.3264064E-1,4.924763E-1,-4.673761E-2,1.1155889E0,1.1994452E0,-4.1728076E-2,4.7165126E-2,-6.1404444E-2,1.10321656E-1,-4.8290882E-2,-3.242484E-2,1.23490445E-1,-3.6029115E-2,1.2176248E-1],"categories":[],"categories_nodes":[],"categories_segments":[],"categories_sizes":[],"default_left":[0,0,0,0,0,0,0,0,0,0,0,0,0,0,0,0,0,0,0,0,0,0,0,0,0,0,0,0,0,0,0,0,0,0,0,0,0],"id":17,"left_children":[1,3,5,7,9,11,13,15,17,-1,-1,19,21,23,25,-1,-1,-1,-1,-1,27,-1,-1,29,31,-1,33,35,-1,-1,-1,-1,-1,-1,-1,-1,-1],"loss_changes":[7.6669464E1,1.3349366E1,4.2520554E1,6.3995924E0,3.5776863E0,1.2318527E1,1.8297626E1,2.715025E0,1.5104859E0,0E0,0E0,5.8818665E0,4.1817373E-1,7.168933E0,6.8670874E0,0E0,0E0,0E0,0E0,0E0,5.671036E0,0E0,0E0,3.0177126E0,5.7352085E0,0E0,3.1703758E0,3.805191E0,0E0,0E0,0E0,0E0,0E0,0E0,0E0,0E0,0E0],"parents":[2147483647,0,0,1,1,2,2,3,3,4,4,5,5,6,6,7,7,8,8,11,11,12,12,13,13,14,14,20,20,23,23,24,24,26,26,27,27],"right_children":[2,4,6,8,10,12,14,16,18,-1,-1,20,22,24,26,-1,-1,-1,-1,-1,28,-1,-1,30,32,-1,34,36,-1,-1,-1,-1,-1,-1,-1,-1,-1],"split_conditions":[5.2126865E-3,-3.8734746E-1,3.0249813E-1,-2.1578854E-1,6.735591E-1,9.255885E-1,9.199367E-2,1.8695625E0,-7.086743E-1,-6.2389832E-2,5.94162E-2,-2.1247637E0,-7.5805604E-1,1.6310197E-1,-5.807524E-1,1.1475755E-1,-3.239598E-2,4.479764E-2,-5.3275514E-2,-4.332937E-2,6.4807487E-1,8.85756E-3,-5.1939856E-2,-1.3703477E0,1.0369645E-1,-4.673761E-2,-3.9521766E-1,-1.333429E0,-4.1728076E-2,4.7165126E-2,-6.1404444E-2,1.10321656E-1,-4.8290882E-2,-3.242484E-2,1.23490445E-1,-3.6029115E-2,1.2176248E-1],"split_indices":[5471,10741,7045,8912,19543,10375,12367,4704,262,0,0,4531,3,2201,5082,0,0,0,0,0,811,0,0,20281,3163,0,122,5045,0,0,0,0,0,0,0,0,0],"split_type":[0,0,0,0,0,0,0,0,0,0,0,0,0,0,0,0,0,0,0,0,0,0,0,0,0,0,0,0,0,0,0,0,0,0,0,0,0],"sum_hessian":[2.6691406E2,8.263131E1,1.8428275E2,1.4927881E1,6.770343E1,1.263364E2,5.794634E1,8.59449E0,6.3333917E0,6.595705E1,1.7463832E0,1.2133112E2,5.0052776E0,4.010318E1,1.784316E1,7.571421E0,1.0230688E0,1.273998E0,5.0593934E0,1.8510963E0,1.1948003E2,1.1337612E0,3.8715165E0,3.2369934E1,7.733247E0,2.7195077E0,1.5123652E1,1.1772637E2,1.7536558E0,2.0676024E0,3.030233E1,4.674954E0,3.0582929E0,1.0259115E0,1.4097741E1,1.1395375E0,1.1658684E2],"tree_param":{"num_deleted":"0","num_feature":"20530","num_nodes":"37","size_leaf_vector":"1"}},{"base_weights":[1.3733522E-2,-4.4426602E-1,6.530395E-1,2.8763598E-1,-5.379514E-1,1.0060546E0,-4.026675E-1,9.516889E-1,-4.003268E-1,-5.6403106E-1,6.5489E-2,-5.026548E-2,1.1404468E0,-5.6886118E-2,5.026107E-1,1.303555E-1,-3.5287414E-2,1.7610382E-2,-5.1123995E-2,-5.819818E-1,6.2101364E-2,2.7613467E-1,1.3125751E0,-3.5352256E-2,1.1021363E-1,-5.9090387E-2,1.7349094E-2,-5.0819423E-2,9.2363584E-1,1.3536174E0,-3.2664876E-2,-3.4106754E-2,1.2756146E-1,1.3977304E-1,6.102807E-4],"categories":[],"categories_nodes":[],"categories_segments":[],"categories_sizes":[],"default_left":[0,0,0,0,0,0,0,0,0,0,0,0,0,0,0,0,0,0,0,0,0,0,0,0,0,0,0,0,0,0,0,0,0,0,0],"id":18,"left_children":[1,3,5,7,9,11,13,15,17,19,-1,-1,21,-1,23,-1,-1,-1,-1,25,-1,27,29,-1,-1,-1,-1,-1,31,33,-1,-1,-1,-1,-1],"loss_changes":[6.1130596E1,8.496437E0,3.2877598E1,6.9854245E0,3.7353077E0,1.38708725E1,3.678423E0,3.9726205E0,5.889963E-1,2.6252327E0,0E0,0E0,8.642029E0,0E0,2.4573107E0,0E0,0E0,0E0,0E0,8.1261444E-1,0E0,6.2173886E0,3.8199615E0,0E0,0E0,0E0,0E0,0E0,3.3529444E0,2.9145737E0,0E0,0E0,0E0,0E0,0E0],"parents":[2147483647,0,0,1,1,2,2,3,3,4,4,5,5,6,6,7,7,8,8,9,9,12,12,14,14,19,19,21,21,22,22,28,28,29,29],"right_children":[2,4,6,8,10,12,14,16,18,20,-1,-1,22,-1,24,-1,-1,-1,-1,26,-1,28,30,-1,-1,-1,-1,-1,32,34,-1,-1,-1,-1,-1],"split_conditions":[4.144764E-1,-9.872261E-1,1.4741158E-1,-7.026741E-1,3.581873E0,-4.8050252E-1,1.1070459E0,7.223235E-1,-1.018507E0,1.8942097E0,6.5489E-2,-5.026548E-2,1.9034524E-1,-5.6886118E-2,9.8875135E-2,1.303555E-1,-3.5287414E-2,1.7610382E-2,-5.1123995E-2,2.2540069E0,6.2101364E-2,1.0086565E-2,1.1757348E0,-3.5352256E-2,1.1021363E-1,-5.9090387E-2,1.7349094E-2,-5.0819423E-2,-2.8607842E-1,1.4482964E0,-3.2664876E-2,-3.4106754E-2,1.2756146E-1,1.3977304E-1,6.102807E-4],"split_indices":[9478,12369,12367,10189,13931,9921,11790,1646,912,8005,0,0,7289,0,82,0,0,0,0,19079,0,4172,14102,0,0,0,0,0,1196,2447,0,0,0,0,0],"split_type":[0,0,0,0,0,0,0,0,0,0,0,0,0,0,0,0,0,0,0,0,0,0,0,0,0,0,0,0,0,0,0,0,0,0,0],"sum_hessian":[2.0678719E2,1.2065494E2,8.6132256E1,1.345667E1,1.07198265E2,6.458341E1,2.1548843E1,6.6522613E0,6.8044086E0,1.0542056E2,1.7777066E0,5.0582666E0,5.9525143E1,1.8520426E1,3.0284176E0,5.2397666E0,1.4124948E0,1.0031486E0,5.80126E0,1.04348816E2,1.071746E0,1.0318222E1,4.9206924E1,1.4162774E0,1.61214E0,1.0334613E2,1.002681E0,4.763392E0,5.55483E0,4.817497E1,1.0319556E0,1.2161287E0,4.3387012E0,4.6611794E1,1.5631735E0],"tree_param":{"num_deleted":"0","num_feature":"20530","num_nodes":"35","size_leaf_vector":"1"}},{"base_weights":[-1.7182462E-1,-5.266801E-1,1.1793681E0,-5.517183E-1,6.989949E-1,-4.780045E-2,1.3912975E0,-5.8441598E-2,2.5533082E-2,9.836862E-2,1.0201468E-2,1.4763586E-1,-7.1615935E-3,1.2582883E-1,-5.0314564E-2],"categories":[],"categories_nodes":[],"categories_segments":[],"categories_sizes":[],"default_left":[0,0,0,0,0,0,0,0,0,0,0,0,0,0,0],"id":19,"left_children":[1,3,5,7,9,-1,11,-1,13,-1,-1,-1,-1,-1,-1],"loss_changes":[9.03847E1,4.9571114E0,1.4450848E1,2.780819E0,4.8144376E-1,0E0,4.467781E0,0E0,6.3772707E0,0E0,0E0,0E0,0E0,0E0,0E0],"parents":[2147483647,0,0,1,1,2,2,3,3,4,4,6,6,8,8],"right_children":[2,4,6,8,10,-1,12,-1,14,-1,-1,-1,-1,-1,-1],"split_conditions":[1.2690568E0,1.6390613E0,-3.5275232E-2,1.2828424E0,7.993741E-1,-4.780045E-2,6.281922E-1,-5.8441598E-2,-6.362749E-1,9.836862E-2,1.0201468E-2,1.4763586E-1,-7.1615935E-3,1.2582883E-1,-5.0314564E-2],"split_indices":[1079,12296,11055,9584,7,0,5420,0,8743,0,0,0,0,0,0],"split_type":[0,0,0,0,0,0,0,0,0,0,0,0,0,0,0],"sum_hessian":[1.862109E2,1.479626E2,3.8248302E1,1.4553938E2,2.4232223E0,4.1940036E0,3.40543E1,1.3772568E2,7.813705E0,1.2021595E0,1.2210629E0,3.217433E1,1.8799672E0,1.9310005E0,5.8827043E0],"tree_param":{"num_deleted":"0","num_feature":"20530","num_nodes":"15","size_leaf_vector":"1"}},{"base_weights":[-1.08529195E-1,1.0676817E0,-5.4515284E-1,1.2388579E0,-3.5429135E-1,-5.7887573E-2,6.511997E-1,1.2764041E-1,1.8759904E-3,1.5917767E-2,-4.8203632E-2,-3.036129E-2,1.06164694E-1],"categories":[],"categories_nodes":[],"categories_segments":[],"categories_sizes":[],"default_left":[0,0,0,0,0,0,0,0,0,0,0,0,0],"id":20,"left_children":[1,3,5,7,9,-1,11,-1,-1,-1,-1,-1,-1],"loss_changes":[9.687757E1,1.2876854E1,5.9205437E0,2.0755768E0,4.878649E-1,0E0,1.9830583E0,0E0,0E0,0E0,0E0,0E0,0E0],"parents":[2147483647,0,0,1,1,2,2,3,3,4,4,6,6],"right_children":[2,4,6,8,10,-1,12,-1,-1,-1,-1,-1,-1],"split_conditions":[-9.359321E-1,5.609424E-1,1.5017003E0,1.6556593E0,-1.7526854E0,-5.7887573E-2,6.2704194E-1,1.2764041E-1,1.8759904E-3,1.5917767E-2,-4.8203632E-2,-3.036129E-2,1.06164694E-1],"split_indices":[726,4674,18032,20266,1754,0,52,0,0,0,0,0,0],"split_type":[0,0,0,0,0,0,0,0,0,0,0,0,0],"sum_hessian":[1.8650534E2,5.0099117E1,1.3640622E2,4.4831146E1,5.267971E0,1.3316858E2,3.2376318E0,4.344797E1,1.3831742E0,1.0004835E0,4.2674875E0,1.0516031E0,2.1860287E0],"tree_param":{"num_deleted":"0","num_feature":"20530","num_nodes":"13","size_leaf_vector":"1"}},{"base_weights":[-3.1383887E-1,-4.7662318E-1,8.661662E-1,-5.512187E-1,3.5871497E-1,1.1038766E0,-4.3167166E-2,-5.722184E-2,3.597309E-1,1.2707005E-1,-5.0109185E-2,1.2337866E0,-3.2632962E-2,-3.402639E-2,9.59071E-2,1.3002625E-1,1.3535889E-2],"categories":[],"categories_nodes":[],"categories_segments":[],"categories_sizes":[],"default_left":[0,0,0,0,0,0,0,0,0,0,0,0,0,0,0,0,0],"id":21,"left_children":[1,3,5,7,9,11,-1,-1,13,-1,-1,15,-1,-1,-1,-1,-1],"loss_changes":[3.2257698E1,9.316002E0,6.7863693E0,2.7831802E0,1.0518274E1,3.6666565E0,0E0,0E0,1.8575885E0,0E0,0E0,1.0152283E0,0E0,0E0,0E0,0E0,0E0],"parents":[2147483647,0,0,1,1,2,2,3,3,4,4,5,5,8,8,11,11],"right_children":[2,4,6,8,10,12,-1,-1,14,-1,-1,16,-1,-1,-1,-1,-1],"split_conditions":[1.8912733E0,1.1629311E0,-5.3143364E-1,3.676972E0,-2.8903133E-1,6.4957523E-1,-4.3167166E-2,-5.722184E-2,5.696864E-1,1.2707005E-1,-5.0109185E-2,8.3923376E-1,-3.2632962E-2,-3.402639E-2,9.59071E-2,1.3002625E-1,1.3535889E-2],"split_indices":[1956,2250,15882,1867,20405,510,0,0,4,0,0,8677,0,0,0,0,0],"split_type":[0,0,0,0,0,0,0,0,0,0,0,0,0,0,0,0,0],"sum_hessian":[1.6478415E2,1.4533144E2,1.9452711E1,1.3372954E2,1.1601891E1,1.656765E1,2.8850608E0,1.3107967E2,2.6498778E0,5.398201E0,6.2036896E0,1.53139715E1,1.2536787E0,1.421692E0,1.2281857E0,1.4266808E1,1.0471635E0],"tree_param":{"num_deleted":"0","num_feature":"20530","num_nodes":"17","size_leaf_vector":"1"}},{"base_weights":[3.725756E-1,6.951964E-1,-3.824188E-1,8.745033E-1,-4.0747115E-1,-5.120099E-1,5.9234643E-1,-1.9830264E-1,9.388839E-1,-5.9964158E-2,8.592123E-2,-5.963803E-1,6.451966E-2,1.0140778E-1,-4.484142E-2,-5.4815657E-2,8.4072456E-2,9.75732E-1,-2.021229E-1,-6.1085638E-2,1.1934115E-2,-5.2889664E-2,9.557523E-2,1.0844941E0,5.190586E-1,4.2814936E-2,-4.885076E-2,1.1076796E-1,-1.6044984E-2,-1.834118E-2,9.968729E-2],"categories":[],"categories_nodes":[],"categories_segments":[],"categories_sizes":[],"default_left":[0,0,0,0,0,0,0,0,0,0,0,0,0,0,0,0,0,0,0,0,0,0,0,0,0,0,0,0,0,0,0],"id":22,"left_children":[1,3,5,7,9,11,13,15,17,-1,-1,19,21,-1,-1,-1,-1,23,25,-1,-1,-1,-1,27,29,-1,-1,-1,-1,-1,-1],"loss_changes":[6.519307E1,3.7350807E1,1.0465567E1,1.132383E1,7.0516815E0,3.5185375E0,4.801735E0,4.079561E0,6.6005707E0,0E0,0E0,7.20541E-1,5.813099E0,0E0,0E0,0E0,0E0,6.77359E0,1.2186944E0,0E0,0E0,0E0,0E0,3.5946808E0,1.0363068E1,0E0,0E0,0E0,0E0,0E0,0E0],"parents":[2147483647,0,0,1,1,2,2,3,3,4,4,5,5,6,6,7,7,8,8,11,11,12,12,17,17,18,18,23,23,24,24],"right_children":[2,4,6,8,10,12,14,16,18,-1,-1,20,22,-1,-1,-1,-1,24,26,-1,-1,-1,-1,28,30,-1,-1,-1,-1,-1,-1],"split_conditions":[4.5359397E-1,7.0600235E-1,7.2630787E-1,-8.1736964E-1,2.2945665E-2,5.5076563E-1,2.0995426E-1,7.7826804E-1,1.5400376E0,-5.9964158E-2,8.592123E-2,2.3059824E0,-8.1376754E-2,1.0140778E-1,-4.484142E-2,-5.4815657E-2,8.4072456E-2,2.74414E-1,-1.786692E0,-6.1085638E-2,1.1934115E-2,-5.2889664E-2,9.557523E-2,2.0389695E0,-2.158926E-1,4.2814936E-2,-4.885076E-2,1.1076796E-1,-1.6044984E-2,-1.834118E-2,9.968729E-2],"split_indices":[7045,18492,13603,3580,15520,4486,4109,1748,4442,0,0,13852,6384,0,0,0,0,7289,45,0,0,0,0,6647,4071,0,0,0,0,0,0],"split_type":[0,0,0,0,0,0,0,0,0,0,0,0,0,0,0,0,0,0,0,0,0,0,0,0,0,0,0,0,0,0,0],"sum_hessian":[2.6555737E2,1.8610924E2,7.944814E1,1.6025653E2,2.585271E1,7.0544304E1,8.903842E0,8.954982E0,1.5130154E2,2.2904448E1,2.9482625E0,6.150859E1,9.035709E0,6.354532E0,2.5493107E0,7.0526843E0,1.9022974E0,1.4670854E2,4.5930104E0,6.0432804E1,1.075787E0,5.6681786E0,3.367531E0,1.1737867E2,2.932986E1,1.2803081E0,3.3127024E0,1.1534085E2,2.037823E0,1.2123034E1,1.7206827E1],"tree_param":{"num_deleted":"0","num_feature":"20530","num_nodes":"31","size_leaf_vector":"1"}},{"base_weights":[1.4079002E-2,-4.3268925E-1,5.992676E-1,2.706997E-1,-5.2760875E-1,9.053295E-1,-3.9016187E-1,7.768251E-1,-5.0048966E-2,-5.5459386E-1,6.328895E-2,-4.926701E-2,1.020105E0,-5.596034E-2,4.7317898E-1,-3.8661547E-2,1.12978175E-1,-5.8294058E-2,2.779804E-1,9.022824E-3,1.1265792E0,-3.4375317E-2,1.0068295E-1,-3.7541773E-2,9.698313E-2,9.094974E-2,-4.8557386E-2,1.1699698E0,-3.5023563E-2,-3.279413E-2,1.2080722E-1],"categories":[],"categories_nodes":[],"categories_segments":[],"categories_sizes":[],"default_left":[0,0,0,0,0,0,0,0,0,0,0,0,0,0,0,0,0,0,0,0,0,0,0,0,0,0,0,0,0,0,0],"id":23,"left_children":[1,3,5,7,9,11,13,15,-1,17,-1,-1,19,-1,21,-1,-1,-1,23,25,27,-1,-1,-1,-1,-1,-1,29,-1,-1,-1],"loss_changes":[5.3362946E1,7.871687E0,2.7109571E1,6.0191593E0,3.5557842E0,1.1378677E1,3.420605E0,4.1740947E0,0E0,2.5349598E0,0E0,0E0,6.768326E0,0E0,2.1253092E0,0E0,0E0,0E0,2.1667144E0,3.5623677E0,4.0596466E0,0E0,0E0,0E0,0E0,0E0,0E0,3.5673676E0,0E0,0E0,0E0],"parents":[2147483647,0,0,1,1,2,2,3,3,4,4,5,5,6,6,7,7,9,9,12,12,14,14,18,18,19,19,20,20,27,27],"right_children":[2,4,6,8,10,12,14,16,-1,18,-1,-1,20,-1,22,-1,-1,-1,24,26,28,-1,-1,-1,-1,-1,-1,30,-1,-1,-1],"split_conditions":[4.144764E-1,-9.872261E-1,1.4741158E-1,-1.6751648E-1,2.0041914E0,-4.8050252E-1,1.1070459E0,1.5793602E-1,-5.0048966E-2,1.8409787E0,6.328895E-2,-4.926701E-2,-1.256573E-2,-5.596034E-2,9.8875135E-2,-3.8661547E-2,1.12978175E-1,-5.8294058E-2,-1.2805898E-1,-8.538034E-1,1.529046E0,-3.4375317E-2,1.0068295E-1,-3.7541773E-2,9.698313E-2,9.094974E-2,-4.8557386E-2,-1.3081471E0,-3.5023563E-2,-3.279413E-2,1.2080722E-1],"split_indices":[9478,12369,12367,10189,12674,9921,11790,4508,0,5563,0,0,18341,0,82,0,0,0,364,3141,9811,0,0,0,0,0,0,18899,0,0,0],"split_type":[0,0,0,0,0,0,0,0,0,0,0,0,0,0,0,0,0,0,0,0,0,0,0,0,0,0,0,0,0,0,0],"sum_hessian":[2.0211694E2,1.1476161E2,8.735533E1,1.3425057E1,1.01336555E2,6.678242E1,2.0572922E1,8.101078E0,5.3239794E0,9.954397E1,1.7925916E0,4.817032E0,6.196538E1,1.7491758E1,3.0811622E0,1.863411E0,6.237667E0,9.655634E1,2.9876266E0,6.0070457E0,5.5958336E1,1.3580519E0,1.7231103E0,1.7717354E0,1.2158911E0,1.8322822E0,4.174763E0,5.4562984E1,1.395354E0,1.1647921E0,5.339819E1],"tree_param":{"num_deleted":"0","num_feature":"20530","num_nodes":"31","size_leaf_vector":"1"}},{"base_weights":[-1.6472699E-1,-5.1727575E-1,1.0501488E0,-5.431973E-1,6.548773E-1,-4.686263E-2,1.2268001E0,-5.770689E-2,3.201454E-2,9.074743E-3,9.2224285E-2,-3.1589955E-2,1.2831847E-1,1.1348996E-1,-4.92953E-2],"categories":[],"categories_nodes":[],"categories_segments":[],"categories_sizes":[],"default_left":[0,0,0,0,0,0,0,0,0,0,0,0,0,0,0],"id":24,"left_children":[1,3,5,7,9,-1,11,-1,13,-1,-1,-1,-1,-1,-1],"loss_changes":[7.800771E1,4.6354218E0,1.1577709E1,2.7140465E0,4.4434547E-1,0E0,3.6249886E0,0E0,5.5625987E0,0E0,0E0,0E0,0E0,0E0,0E0],"parents":[2147483647,0,0,1,1,2,2,3,3,4,4,6,6,8,8],"right_children":[2,4,6,8,10,-1,12,-1,14,-1,-1,-1,-1,-1,-1],"split_conditions":[1.2690568E0,1.6390613E0,-3.5275232E-2,1.2828424E0,1.3127962E-1,-4.686263E-2,-1.7727324E-1,-5.770689E-2,-6.362749E-1,9.074743E-3,9.2224285E-2,-3.1589955E-2,1.2831847E-1,1.1348996E-1,-4.92953E-2],"split_indices":[1079,12296,11055,9584,4,0,10151,0,8743,0,0,0,0,0,0],"split_type":[0,0,0,0,0,0,0,0,0,0,0,0,0,0,0],"sum_hessian":[1.7986378E2,1.3985347E2,4.0010315E1,1.3735257E2,2.5008986E0,3.9965723E0,3.6013744E1,1.2971124E2,7.6413283E0,1.234844E0,1.2660546E0,1.1075785E0,3.4906162E1,2.0895731E0,5.5517554E0],"tree_param":{"num_deleted":"0","num_feature":"20530","num_nodes":"15","size_leaf_vector":"1"}},{"base_weights":[-1.045711E-1,9.801076E-1,-5.326757E-1,1.1448034E-1,-4.8113473E-2,5.715836E-1,-5.726278E-2,-3.1434413E-2,9.2389636E-2],"categories":[],"categories_nodes":[],"categories_segments":[],"categories_sizes":[],"default_left":[0,0,0,0,0,0,0,0,0],"id":25,"left_children":[1,3,5,-1,-1,7,-1,-1,-1],"loss_changes":[8.451803E1,1.2954819E1,6.077812E0,0E0,0E0,1.8671722E0,0E0,0E0,0E0],"parents":[2147483647,0,0,1,1,2,2,5,5],"right_children":[2,4,6,-1,-1,8,-1,-1,-1],"split_conditions":[-6.118433E-1,7.6339716E-1,-1.6982316E0,1.1448034E-1,-4.8113473E-2,7.275972E-1,-5.726278E-2,-3.1434413E-2,9.2389636E-2],"split_indices":[4579,768,8466,0,0,141,0,0,0],"split_type":[0,0,0,0,0,0,0,0,0],"sum_hessian":[1.79887E2,5.0541573E1,1.2934541E2,4.5616695E1,4.924877E0,4.0516872E0,1.2529373E2,1.1834773E0,2.8682098E0],"tree_param":{"num_deleted":"0","num_feature":"20530","num_nodes":"9","size_leaf_vector":"1"}},{"base_weights":[-3.0462515E-1,-4.6758956E-1,7.891359E-1,-5.4400855E-1,3.374879E-1,9.9503934E-1,-4.217608E-2,-5.658349E-2,3.4238777E-1,-4.922612E-2,1.13277964E-1,1.107039E0,-3.179164E-2,-3.326405E-2,8.8858865E-2,1.1658565E-1,1.15538305E-2],"categories":[],"categories_nodes":[],"categories_segments":[],"categories_sizes":[],"default_left":[0,0,0,0,0,0,0,0,0,0,0,0,0,0,0,0,0],"id":26,"left_children":[1,3,5,7,9,11,-1,-1,13,-1,-1,15,-1,-1,-1,-1,-1],"loss_changes":[2.8581825E1,8.697472E0,5.629898E0,2.646347E0,8.88154E0,3.0220623E0,0E0,0E0,1.6485524E0,0E0,0E0,8.540001E-1,0E0,0E0,0E0,0E0,0E0],"parents":[2147483647,0,0,1,1,2,2,3,3,4,4,5,5,8,8,11,11],"right_children":[2,4,6,8,10,12,-1,-1,14,-1,-1,16,-1,-1,-1,-1,-1],"split_conditions":[1.8912733E0,1.1629311E0,-5.3143364E-1,3.676972E0,6.6745174E-1,6.4957523E-1,-4.217608E-2,-5.658349E-2,5.696864E-1,-4.922612E-2,1.13277964E-1,1.1373471E0,-3.179164E-2,-3.326405E-2,8.8858865E-2,1.1658565E-1,1.15538305E-2],"split_indices":[1956,2250,15882,1867,1457,510,0,0,4,0,0,2534,0,0,0,0,0],"split_type":[0,0,0,0,0,0,0,0,0,0,0,0,0,0,0,0,0],"sum_hessian":[1.5728197E2,1.3738487E2,1.9897102E1,1.2577082E2,1.1614048E1,1.7157814E1,2.739289E0,1.2310126E2,2.6695633E0,5.8703675E0,5.7436805E0,1.5953739E1,1.2040735E0,1.3688489E0,1.3007144E0,1.4894331E1,1.0594085E0],"tree_param":{"num_deleted":"0","num_feature":"20530","num_nodes":"17","size_leaf_vector":"1"}},{"base_weights":[3.4947407E-1,-3.7379697E-1,6.435031E-1,3.8246393E-1,-5.606864E-1,8.964009E-1,4.203618E-2,8.05662E-1,-2.805481E-1,-6.0137834E-2,5.1427044E-2,9.4071376E-1,-4.908895E-2,-3.5298026E-1,6.5159625E-1,9.512486E-2,-2.8410284E-3,4.030486E-2,-5.0842922E-2,-4.1552883E-2,9.628505E-1,5.6750315E-1,-5.116411E-1,-4.7819477E-2,8.766971E-1,9.842178E-1,-4.0307306E-2,8.7566435E-2,-3.270472E-2,5.2137345E-2,-5.9424754E-2,9.8139006E-1,-3.455129E-2,-1.6743338E-2,1.004854E-1,1.0354874E-1,7.4983905E-3],"categories":[],"categories_nodes":[],"categories_segments":[],"categories_sizes":[],"default_left":[0,0,0,0,0,0,0,0,0,0,0,0,0,0,0,0,0,0,0,0,0,0,0,0,0,0,0,0,0,0,0,0,0,0,0,0,0],"id":27,"left_children":[1,3,5,7,9,11,13,15,17,-1,-1,19,-1,21,23,-1,-1,-1,-1,-1,25,27,29,-1,31,33,-1,-1,-1,-1,-1,35,-1,-1,-1,-1,-1],"loss_changes":[5.6176178E1,1.1048561E1,2.8463219E1,4.654757E0,3.0156116E0,8.567749E0,1.3837363E1,1.2282829E0,1.2784364E0,0E0,0E0,4.24662E0,0E0,5.393053E0,6.15991E0,0E0,0E0,0E0,0E0,0E0,4.084778E0,1.8331586E0,2.897843E0,0E0,2.7927303E0,3.132019E0,0E0,0E0,0E0,0E0,0E0,8.0119705E-1,0E0,0E0,0E0,0E0,0E0],"parents":[2147483647,0,0,1,1,2,2,3,3,4,4,5,5,6,6,7,7,8,8,11,11,13,13,14,14,20,20,21,21,22,22,24,24,25,25,31,31],"right_children":[2,4,6,8,10,12,14,16,18,-1,-1,20,-1,22,24,-1,-1,-1,-1,-1,26,28,30,-1,32,34,-1,-1,-1,-1,-1,36,-1,-1,-1,-1,-1],"split_conditions":[5.2126865E-3,-3.8734746E-1,3.0249813E-1,-2.1578854E-1,6.735591E-1,9.7219753E-1,-2.5592655E-1,3.955546E-1,-9.7224647E-1,-6.0137834E-2,5.1427044E-2,-2.1247637E0,-4.908895E-2,-5.0050217E-1,-4.8518586E-1,9.512486E-2,-2.8410284E-3,4.030486E-2,-5.0842922E-2,-4.1552883E-2,6.4807487E-1,1.6102432E-1,-2.1400517E-1,-4.7819477E-2,1.3657545E0,-1.6220464E0,-4.0307306E-2,8.7566435E-2,-3.270472E-2,5.2137345E-2,-5.9424754E-2,9.271342E-1,-3.455129E-2,-1.6743338E-2,1.004854E-1,1.0354874E-1,7.4983905E-3],"split_indices":[5471,10741,7045,8912,19543,10375,6873,9538,423,0,0,4531,0,16048,15232,0,0,0,0,0,811,8,3198,0,1214,18897,0,0,0,0,0,517,0,0,0,0,0],"split_type":[0,0,0,0,0,0,0,0,0,0,0,0,0,0,0,0,0,0,0,0,0,0,0,0,0,0,0,0,0,0,0,0,0,0,0,0,0],"sum_hessian":[2.6202512E2,7.56544E1,1.8637071E2,1.4783895E1,6.0870506E1,1.308585E2,5.5512207E1,8.892616E0,5.891278E0,5.9074818E1,1.7956877E0,1.2711995E2,3.7385635E0,3.393928E1,2.1572926E1,7.45148E0,1.4411366E0,1.2807153E0,4.6105623E0,1.7561432E0,1.253638E2,4.6110535E0,2.9328228E1,3.3973126E0,1.8175613E1,1.2370808E2,1.6557294E0,3.4453025E0,1.1657507E0,1.7783222E0,2.7549906E1,1.6923044E1,1.2525692E0,2.0524552E0,1.2165562E2,1.5835517E1,1.0875274E0],"tree_param":{"num_deleted":"0","num_feature":"20530","num_nodes":"37","size_leaf_vector":"1"}},{"base_weights":[1.4185954E-2,-4.2178953E-1,5.540304E-1,2.561012E-1,-5.1783735E-1,8.244004E-1,-3.7881187E-1,-4.9100492E-2,7.1851677E-1,5.9320416E-2,-5.4588795E-1,-4.8265006E-2,9.2452854E-1,4.4483495E-1,-5.5097133E-2,-3.9418682E-2,1.0865622E-1,-5.654862E-1,5.7465848E-2,1.392521E-1,1.0352181E0,9.233793E-2,-3.343061E-2,-5.7511736E-2,1.6301962E-2,-4.9836855E-2,8.688819E-2,1.0752039E0,-3.426423E-2,-3.1846385E-2,1.1100185E-1],"categories":[],"categories_nodes":[],"categories_segments":[],"categories_sizes":[],"default_left":[0,0,0,0,0,0,0,0,0,0,0,0,0,0,0,0,0,0,0,0,0,0,0,0,0,0,0,0,0,0,0],"id":28,"left_children":[1,3,5,7,9,11,13,-1,15,-1,17,-1,19,21,-1,-1,-1,23,-1,25,27,-1,-1,-1,-1,-1,-1,29,-1,-1,-1],"loss_changes":[4.674355E1,7.287632E0,2.2688917E1,5.2954464E0,3.3339043E0,9.489487E0,3.1691818E0,0E0,4.213606E0,0E0,2.4052258E0,0E0,5.464573E0,1.8442581E0,0E0,0E0,0E0,7.5050545E-1,0E0,4.6792006E0,3.4756966E0,0E0,0E0,0E0,0E0,0E0,0E0,3.0245247E0,0E0,0E0,0E0],"parents":[2147483647,0,0,1,1,2,2,3,3,4,4,5,5,6,6,8,8,10,10,12,12,13,13,17,17,19,19,20,20,27,27],"right_children":[2,4,6,8,10,12,14,-1,16,-1,18,-1,20,22,-1,-1,-1,24,-1,26,28,-1,-1,-1,-1,-1,-1,30,-1,-1,-1],"split_conditions":[4.144764E-1,-9.872261E-1,1.4741158E-1,3.6319755E-2,-1.6729933E0,-4.8050252E-1,-1.4075638E0,-4.9100492E-2,-3.4292713E-1,5.9320416E-2,1.8942097E0,-4.8265006E-2,2.1082327E-2,-1.014603E0,-5.5097133E-2,-3.9418682E-2,1.0865622E-1,2.2540069E0,5.7465848E-2,4.492215E-2,1.529046E0,9.233793E-2,-3.343061E-2,-5.7511736E-2,1.6301962E-2,-4.9836855E-2,8.688819E-2,-1.3081471E0,-3.426423E-2,-3.1846385E-2,1.1100185E-1],"split_indices":[9478,12369,12367,6435,8682,9921,16842,0,8978,0,8005,0,18341,96,0,0,0,19079,0,11145,9811,0,0,0,0,0,0,18899,0,0,0],"split_type":[0,0,0,0,0,0,0,0,0,0,0,0,0,0,0,0,0,0,0,0,0,0,0,0,0,0,0,0,0,0,0],"sum_hessian":[1.9661249E2,1.0889122E2,8.7721275E1,1.3306889E1,9.558433E1,6.809983E1,1.962144E1,5.063756E0,8.243132E0,1.857656E0,9.372668E1,4.5738206E0,6.3526012E1,3.1184185E0,1.6503023E1,2.0312057E0,6.2119265E0,9.260242E1,1.124258E0,8.12711E0,5.5398903E1,1.8171872E0,1.3012314E0,9.160195E1,1.000466E0,4.5061545E0,3.6209545E0,5.405002E1,1.3488828E0,1.118725E0,5.2931293E1],"tree_param":{"num_deleted":"0","num_feature":"20530","num_nodes":"31","size_leaf_vector":"1"}},{"base_weights":[-1.5854271E-1,-5.083341E-1,9.488542E-1,-5.3516704E-1,6.150012E-1,-4.5929234E-2,1.1005172E0,-5.7023074E-2,3.757122E-2,7.956581E-3,8.6758815E-2,1.1500794E-1,-3.1200582E-2,1.0394021E-1,-4.834866E-2],"categories":[],"categories_nodes":[],"categories_segments":[],"categories_sizes":[],"default_left":[0,0,0,0,0,0,0,0,0,0,0,0,0,0,0],"id":29,"left_children":[1,3,5,7,9,-1,11,-1,13,-1,-1,-1,-1,-1,-1],"loss_changes":[6.789519E1,4.335289E0,9.501732E0,2.6389885E0,4.13247E-1,0E0,3.041748E0,0E0,4.917462E0,0E0,0E0,0E0,0E0,0E0,0E0],"parents":[2147483647,0,0,1,1,2,2,3,3,4,4,6,6,8,8],"right_children":[2,4,6,8,10,-1,12,-1,14,-1,-1,-1,-1,-1,-1],"split_conditions":[1.2690568E0,1.6390613E0,-3.5275232E-2,1.2828424E0,-5.2008707E-2,-4.5929234E-2,6.162872E-1,-5.7023074E-2,-6.362749E-1,7.956581E-3,8.6758815E-2,1.1500794E-1,-3.1200582E-2,1.0394021E-1,-4.834866E-2],"split_indices":[1079,12296,11055,9584,9,0,2421,0,8743,0,0,0,0,0,0],"split_type":[0,0,0,0,0,0,0,0,0,0,0,0,0,0,0],"sum_hessian":[1.7303244E2,1.319079E2,4.112454E1,1.2934192E2,2.56598E0,3.8013875E0,3.732315E1,1.2188441E2,7.4575195E0,1.2439822E0,1.3219979E0,3.623746E1,1.08569E0,2.2112281E0,5.246291E0],"tree_param":{"num_deleted":"0","num_feature":"20530","num_nodes":"15","size_leaf_vector":"1"}},{"base_weights":[-1.01198554E-1,8.967782E-1,-5.2514434E-1,1.04110256E-1,-4.719877E-2,5.3356504E-1,-5.6601644E-2,-3.0598069E-2,8.535845E-2],"categories":[],"categories_nodes":[],"categories_segments":[],"categories_sizes":[],"default_left":[0,0,0,0,0,0,0,0,0],"id":30,"left_children":[1,3,5,-1,-1,7,-1,-1,-1],"loss_changes":[7.3941055E1,1.0792168E1,5.6031494E0,0E0,0E0,1.6229304E0,0E0,0E0,0E0],"parents":[2147483647,0,0,1,1,2,2,5,5],"right_children":[2,4,6,-1,-1,8,-1,-1,-1],"split_conditions":[-6.118433E-1,7.6339716E-1,-1.6982316E0,1.04110256E-1,-4.719877E-2,7.275972E-1,-5.6601644E-2,-3.0598069E-2,8.535845E-2],"split_indices":[4579,768,8466,0,0,141,0,0,0],"split_type":[0,0,0,0,0,0,0,0,0],"sum_hessian":[1.7265207E2,5.1143635E1,1.2150844E2,4.648191E1,4.661724E0,4.0684686E0,1.1743997E2,1.134932E0,2.9335365E0],"tree_param":{"num_deleted":"0","num_feature":"20530","num_nodes":"9","size_leaf_vector":"1"}},{"base_weights":[-2.959417E-1,-4.707355E-1,6.6218174E-1,-5.2425855E-1,5.183102E-1,8.6870354E-1,-4.3952182E-2,-5.526065E-1,6.152866E-1,-3.8718466E-2,9.863009E-2,-3.4281317E-2,9.7870284E-1,1.5852807E-2,-5.60202E-2,7.598369E-2,1.3512449E-2,7.271011E-4,1.0570182E-1],"categories":[],"categories_nodes":[],"categories_segments":[],"categories_sizes":[],"default_left":[0,0,0,0,0,0,0,0,0,0,0,0,0,0,0,0,0,0,0],"id":31,"left_children":[1,3,5,7,9,11,-1,13,15,-1,-1,-1,17,-1,-1,-1,-1,-1,-1],"loss_changes":[2.5536589E1,7.0458126E0,5.763728E0,4.277626E0,3.3788662E0,3.034937E0,0E0,7.34066E-1,1.3552356E-1,0E0,0E0,0E0,1.4248085E0,0E0,0E0,0E0,0E0,0E0,0E0],"parents":[2147483647,0,0,1,1,2,2,3,3,4,4,5,5,7,7,8,8,12,12],"right_children":[2,4,6,8,10,12,-1,14,16,-1,-1,-1,18,-1,-1,-1,-1,-1,-1],"split_conditions":[1.4946629E0,1.9220257E0,-5.3143364E-1,2.185971E0,-1.291866E-1,-1.1654432E0,-4.3952182E-2,-2.4350214E0,-9.787445E-1,-3.8718466E-2,9.863009E-2,-3.4281317E-2,-1.1405417E0,1.5852807E-2,-5.60202E-2,7.598369E-2,1.3512449E-2,7.271011E-4,1.0570182E-1],"split_indices":[11686,11613,15882,19687,2392,776,0,10144,7,0,0,0,17365,0,0,0,0,0,0],"split_type":[0,0,0,0,0,0,0,0,0,0,0,0,0,0,0,0,0,0,0],"sum_hessian":[1.4961966E2,1.26965576E2,2.265408E1,1.20893265E2,6.072311E0,1.9255917E1,3.398162E0,1.1846142E2,2.43185E0,2.1278648E0,3.944446E0,1.4266372E0,1.7829279E1,1.041891E0,1.17419525E2,1.4214664E0,1.0103837E0,1.4116657E0,1.6417614E1],"tree_param":{"num_deleted":"0","num_feature":"20530","num_nodes":"19","size_leaf_vector":"1"}},{"base_weights":[3.2952148E-1,-3.6278874E-1,5.9998816E-1,3.61435E-1,-5.4960954E-1,8.2847047E-1,4.0331576E-2,7.482091E-1,-2.6875585E-1,-5.9109963E-2,4.8230164E-2,8.685654E-1,-4.7902573E-2,-3.4124675E-1,6.050267E-1,-3.7679472E-3,8.841582E-2,3.886674E-2,-4.9634654E-2,-4.0421184E-2,8.8881516E-1,5.353766E-1,-4.99782E-1,-4.65929E-2,8.091479E-1,9.08297E-1,-3.918804E-2,8.1797175E-2,-3.1647727E-2,4.893301E-2,-5.8353316E-2,9.045269E-1,-3.3632845E-2,-3.632539E-2,9.230166E-2,9.54534E-2,6.0140924E-3],"categories":[],"categories_nodes":[],"categories_segments":[],"categories_sizes":[],"default_left":[0,0,0,0,0,0,0,0,0,0,0,0,0,0,0,0,0,0,0,0,0,0,0,0,0,0,0,0,0,0,0,0,0,0,0,0,0],"id":32,"left_children":[1,3,5,7,9,11,13,15,17,-1,-1,19,-1,21,23,-1,-1,-1,-1,-1,25,27,29,-1,31,33,-1,-1,-1,-1,-1,35,-1,-1,-1,-1,-1],"loss_changes":[4.844387E1,1.0072333E1,2.3696724E1,3.9956381E0,2.78578E0,7.321747E0,1.2025375E1,1.0922546E0,1.1888902E0,0E0,0E0,3.6624908E0,0E0,4.9054294E0,5.290949E0,0E0,0E0,0E0,0E0,0E0,3.511383E0,1.6054417E0,2.6694913E0,0E0,2.4068823E0,2.6725388E0,0E0,0E0,0E0,0E0,0E0,7.0422363E-1,0E0,0E0,0E0,0E0,0E0],"parents":[2147483647,0,0,1,1,2,2,3,3,4,4,5,5,6,6,7,7,8,8,11,11,13,13,14,14,20,20,21,21,22,22,24,24,25,25,31,31],"right_children":[2,4,6,8,10,12,14,16,18,-1,-1,20,-1,22,24,-1,-1,-1,-1,-1,26,28,30,-1,32,34,-1,-1,-1,-1,-1,36,-1,-1,-1,-1,-1],"split_conditions":[5.2126865E-3,-3.8734746E-1,3.0249813E-1,-2.1578854E-1,6.735591E-1,9.7219753E-1,-2.5592655E-1,-2.2655706E-1,-6.0442847E-1,-5.9109963E-2,4.8230164E-2,-2.1247637E0,-4.7902573E-2,-5.0050217E-1,-4.8518586E-1,-3.7679472E-3,8.841582E-2,3.886674E-2,-4.9634654E-2,-4.0421184E-2,6.4807487E-1,1.6102432E-1,-2.1400517E-1,-4.65929E-2,1.3657545E0,-1.333429E0,-3.918804E-2,8.1797175E-2,-3.1647727E-2,4.893301E-2,-5.8353316E-2,1.1918161E0,-3.3632845E-2,-3.632539E-2,9.230166E-2,9.54534E-2,6.0140924E-3],"split_indices":[5471,10741,7045,8912,19543,10375,6873,14748,238,0,0,4531,0,16048,15232,0,0,0,0,0,811,8,3198,0,1214,5045,0,0,0,0,0,3357,0,0,0,0,0],"split_type":[0,0,0,0,0,0,0,0,0,0,0,0,0,0,0,0,0,0,0,0,0,0,0,0,0,0,0,0,0,0,0,0,0,0,0,0,0],"sum_hessian":[2.5655408E2,7.197619E1,1.8457788E2,1.4567936E1,5.7408257E1,1.307275E2,5.385039E1,8.91138E0,5.6565557E0,5.559993E1,1.808325E0,1.27163666E2,3.5638258E0,3.2371723E1,2.147867E1,1.4208174E0,7.490563E0,1.2726383E0,4.3839173E0,1.6945299E0,1.2546914E2,4.593709E0,2.7778015E1,3.2330942E0,1.8245575E1,1.2387553E2,1.5936078E0,3.479267E0,1.1144419E0,1.790408E0,2.5987606E1,1.70373E1,1.2082758E0,1.1466111E0,1.2272892E2,1.596156E1,1.0757388E0],"tree_param":{"num_deleted":"0","num_feature":"20530","num_nodes":"37","size_leaf_vector":"1"}},{"base_weights":[1.4517044E-2,-4.114565E-1,5.1707035E-1,2.4251215E-1,-5.083236E-1,7.597948E-1,-3.6768666E-1,-4.8068646E-2,6.651767E-1,-5.3739905E-1,5.736657E-2,-4.725907E-2,8.489305E-1,-5.42695E-2,4.230435E-1,-3.8465746E-2,9.9341445E-2,-5.682238E-2,2.804924E-1,2.0898446E-1,9.6536124E-1,-3.229546E-2,8.5353985E-2,-3.5150103E-2,8.597589E-2,-4.9174335E-2,7.100336E-1,1.000689E0,8.7903775E-3,-3.1895813E-2,9.560982E-2,1.02796175E-1,-7.3145336E-4],"categories":[],"categories_nodes":[],"categories_segments":[],"categories_sizes":[],"default_left":[0,0,0,0,0,0,0,0,0,0,0,0,0,0,0,0,0,0,0,0,0,0,0,0,0,0,0,0,0,0,0,0,0],"id":33,"left_children":[1,3,5,7,9,11,13,-1,15,17,-1,-1,19,-1,21,-1,-1,-1,23,25,27,-1,-1,-1,-1,-1,29,31,-1,-1,-1,-1,-1],"loss_changes":[4.114854E1,6.714859E0,1.9213802E1,4.6300597E0,3.16959E0,8.037258E0,2.9495115E0,0E0,3.593513E0,2.4054127E0,0E0,0E0,4.654995E0,0E0,1.599994E0,0E0,0E0,0E0,1.7318468E0,4.320098E0,1.6130257E0,0E0,0E0,0E0,0E0,0E0,2.0783052E0,1.4549866E0,0E0,0E0,0E0,0E0,0E0],"parents":[2147483647,0,0,1,1,2,2,3,3,4,4,5,5,6,6,8,8,9,9,12,12,14,14,18,18,19,19,20,20,26,26,27,27],"right_children":[2,4,6,8,10,12,14,-1,16,18,-1,-1,20,-1,22,-1,-1,-1,24,26,28,-1,-1,-1,-1,-1,30,32,-1,-1,-1,-1,-1],"split_conditions":[4.144764E-1,-9.872261E-1,1.4741158E-1,3.6319755E-2,2.0041914E0,-4.8050252E-1,1.1070459E0,-4.8068646E-2,-3.4292713E-1,1.8409787E0,5.736657E-2,-4.725907E-2,1.9034524E-1,-5.42695E-2,9.8875135E-2,-3.8465746E-2,9.9341445E-2,-5.682238E-2,-1.2805898E-1,1.0086565E-2,4.9628887E-1,-3.229546E-2,8.5353985E-2,-3.5150103E-2,8.597589E-2,-4.9174335E-2,-2.8607842E-1,1.9150214E0,8.7903775E-3,-3.1895813E-2,9.560982E-2,1.02796175E-1,-7.3145336E-4],"split_indices":[9478,12369,12367,6435,12674,9921,11790,0,8978,5563,0,0,7289,0,82,0,0,0,364,4172,10214,0,0,0,0,0,1196,11734,0,0,0,0,0],"split_type":[0,0,0,0,0,0,0,0,0,0,0,0,0,0,0,0,0,0,0,0,0,0,0,0,0,0,0,0,0,0,0,0,0],"sum_hessian":[1.9022224E2,1.03053474E2,8.716878E1,1.3101196E1,8.995228E1,6.851389E1,1.8654879E1,4.781888E0,8.319308E0,8.808846E1,1.8638124E0,4.331053E0,6.4182846E1,1.5531131E1,3.1237483E0,1.9406034E0,6.378705E0,8.5183334E1,2.9051342E0,1.0310037E1,5.3872807E1,1.2344333E0,1.8893149E0,1.5773761E0,1.3277581E0,4.306241E0,6.003796E0,5.165274E1,2.2200627E0,1.1014637E0,4.902333E0,5.027276E1,1.3799844E0],"tree_param":{"num_deleted":"0","num_feature":"20530","num_nodes":"33","size_leaf_vector":"1"}},{"base_weights":[-1.5291964E-1,-5.3422767E-1,7.7877754E-1,-5.6409698E-2,4.1734353E-1,-1.9160888E-1,9.649417E-1,-3.2628383E-2,8.736173E-2,8.342117E-2,-4.9445383E-2,1.0296214E0,-3.6302604E-2,1.2018284E-3,1.0658961E-1],"categories":[],"categories_nodes":[],"categories_segments":[],"categories_sizes":[],"default_left":[0,0,0,0,0,0,0,0,0,0,0,0,0,0,0],"id":34,"left_children":[1,3,5,-1,7,9,11,-1,-1,-1,-1,13,-1,-1,-1],"loss_changes":[5.9652203E1,3.615158E0,9.0059395E0,0E0,1.7079505E0,3.1134331E0,3.9069748E0,0E0,0E0,0E0,0E0,1.4447212E0,0E0,0E0,0E0],"parents":[2147483647,0,0,1,1,2,2,4,4,5,5,6,6,11,11],"right_children":[2,4,6,-1,8,10,12,-1,-1,-1,-1,14,-1,-1,-1],"split_conditions":[8.53871E-1,1.608393E0,4.4244114E-1,-5.6409698E-2,-2.6043085E-2,-9.700729E-1,1.7879684E-1,-3.2628383E-2,8.736173E-2,8.342117E-2,-4.9445383E-2,-5.14046E-1,-3.6302604E-2,1.2018284E-3,1.0658961E-1],"split_indices":[7354,12386,20007,0,17,274,19543,0,0,0,0,10924,0,0,0],"split_type":[0,0,0,0,0,0,0,0,0,0,0,0,0,0,0],"sum_hessian":[1.657386E2,1.1790939E2,4.7829197E1,1.1471572E2,3.1936724E0,7.694117E0,4.0135082E1,1.3227581E0,1.8709143E0,1.3538077E0,6.340309E0,3.848529E1,1.649793E0,1.3704945E0,3.7114796E1],"tree_param":{"num_deleted":"0","num_feature":"20530","num_nodes":"15","size_leaf_vector":"1"}},{"base_weights":[-9.821383E-2,7.7678835E-1,-5.447661E-1,-4.8768606E-2,9.301345E-1,4.521061E-2,-5.5960763E-2,9.640992E-2,-3.0347748E-2],"categories":[],"categories_nodes":[],"categories_segments":[],"categories_sizes":[],"default_left":[0,0,0,0,0,0,0,0,0],"id":35,"left_children":[1,3,5,-1,7,-1,-1,-1,-1],"loss_changes":[6.528843E1,1.1410332E1,1.8878899E0,0E0,2.4185066E0,0E0,0E0,0E0,0E0],"parents":[2147483647,0,0,1,1,2,2,4,4],"right_children":[2,4,6,-1,8,-1,-1,-1,-1],"split_conditions":[-8.873315E-1,2.073632E-1,-1.8388933E0,-4.8768606E-2,2.891458E-1,4.521061E-2,-5.5960763E-2,9.640992E-2,-3.0347748E-2],"split_indices":[19752,15500,1221,0,3659,0,0,0,0],"split_type":[0,0,0,0,0,0,0,0,0],"sum_hessian":[1.6500865E2,5.550642E1,1.09502235E2,5.767552E0,4.973887E1,1.174156E0,1.0832808E2,4.8618736E1,1.1201327E0],"tree_param":{"num_deleted":"0","num_feature":"20530","num_nodes":"9","size_leaf_vector":"1"}},{"base_weights":[-2.8765607E-1,-4.623968E-1,6.156032E-1,-5.1723254E-1,4.8576042E-1,8.008176E-1,-4.2965084E-2,-5.465965E-1,5.788101E-1,9.095459E-2,-3.7934303E-2,8.998477E-1,-3.3388592E-2,-5.545875E-2,1.6439622E-2,7.167469E-2,1.2297074E-2,-6.601371E-5,9.705558E-2],"categories":[],"categories_nodes":[],"categories_segments":[],"categories_sizes":[],"default_left":[0,0,0,0,0,0,0,0,0,0,0,0,0,0,0,0,0,0,0],"id":36,"left_children":[1,3,5,7,9,11,-1,13,15,-1,-1,17,-1,-1,-1,-1,-1,-1,-1],"loss_changes":[2.284886E1,6.5089703E0,4.9133825E0,3.9937916E0,2.946507E0,2.5926504E0,0E0,7.263336E-1,1.2985492E-1,0E0,0E0,1.212471E0,0E0,0E0,0E0,0E0,0E0,0E0,0E0],"parents":[2147483647,0,0,1,1,2,2,3,3,4,4,5,5,7,7,8,8,11,11],"right_children":[2,4,6,8,10,12,-1,14,16,-1,-1,18,-1,-1,-1,-1,-1,-1,-1],"split_conditions":[1.4946629E0,1.9220257E0,-5.3143364E-1,2.185971E0,-4.108597E-1,7.352379E-1,-4.2965084E-2,4.8643823E0,-8.237165E-1,9.095459E-2,-3.7934303E-2,-1.3605922E-1,-3.3388592E-2,-5.545875E-2,1.6439622E-2,7.167469E-2,1.2297074E-2,-6.601371E-5,9.705558E-2],"split_indices":[11686,11613,15882,19687,3511,19568,0,10113,1,0,0,9228,0,0,0,0,0,0,0],"split_type":[0,0,0,0,0,0,0,0,0,0,0,0,0,0,0,0,0,0,0],"sum_hessian":[1.4195963E2,1.1935734E2,2.2602287E1,1.1326147E2,6.0958753E0,1.9398766E1,3.203521E0,1.1079448E2,2.4669874E0,4.0570765E0,2.038799E0,1.8032015E1,1.3667502E0,1.09780624E2,1.0138572E0,1.4544917E0,1.0124956E0,1.3849207E0,1.6647095E1],"tree_param":{"num_deleted":"0","num_feature":"20530","num_nodes":"19","size_leaf_vector":"1"}},{"base_weights":[3.1205195E-1,5.644281E-1,-3.5244137E-1,6.97932E-1,-3.7764797E-1,-4.8962682E-1,4.315837E-1,-1.8236388E-1,7.461613E-1,-5.677664E-2,6.8641074E-2,3.874392E-1,-5.400417E-1,-4.330681E-2,7.6587915E-2,-5.1645555E-2,6.695996E-2,7.7454084E-1,-2.0157537E-1,-9.657479E-4,6.025517E-2,-5.6765896E-1,3.81902E-2,8.106367E-1,-1.6111275E-2,3.406826E-2,-4.5917444E-2,1.0540257E-2,-5.8193393E-2,8.301761E-2,-2.3986476E-2,-4.9513724E-2,6.661146E-2],"categories":[],"categories_nodes":[],"categories_segments":[],"categories_sizes":[],"default_left":[0,0,0,0,0,0,0,0,0,0,0,0,0,0,0,0,0,0,0,0,0,0,0,0,0,0,0,0,0,0,0,0,0],"id":37,"left_children":[1,3,5,7,9,11,13,15,17,-1,-1,19,21,-1,-1,-1,-1,23,25,-1,-1,27,-1,29,31,-1,-1,-1,-1,-1,-1,-1,-1],"loss_changes":[4.2216408E1,2.314972E1,7.695238E0,6.9176636E0,5.090121E0,2.8484488E0,3.4804146E0,2.936087E0,4.234459E0,0E0,0E0,3.3269697E-1,1.6645622E0,0E0,0E0,0E0,0E0,4.220581E0,8.830781E-1,0E0,0E0,5.9562874E-1,0E0,3.093567E0,2.7538164E0,0E0,0E0,0E0,0E0,0E0,0E0,0E0,0E0],"parents":[2147483647,0,0,1,1,2,2,3,3,4,4,5,5,6,6,7,7,8,8,11,11,12,12,17,17,18,18,21,21,23,23,24,24],"right_children":[2,4,6,8,10,12,14,16,18,-1,-1,20,22,-1,-1,-1,-1,24,26,-1,-1,28,-1,30,32,-1,-1,-1,-1,-1,-1,-1,-1],"split_conditions":[4.5359397E-1,7.0600235E-1,7.1706134E-1,-8.1736964E-1,2.2945665E-2,1.9115715E-1,5.8488265E-2,7.7826804E-1,1.8864316E0,-5.677664E-2,6.8641074E-2,4.4767815E-1,2.0343575E0,-4.330681E-2,7.6587915E-2,-5.1645555E-2,6.695996E-2,6.580401E-1,-1.0530145E0,-9.657479E-4,6.025517E-2,-2.0840719E0,3.81902E-2,1.9332452E0,8.798986E-2,3.406826E-2,-4.5917444E-2,1.0540257E-2,-5.8193393E-2,8.301761E-2,-2.3986476E-2,-4.9513724E-2,6.661146E-2],"split_indices":[7045,18492,13603,3580,15520,17100,14538,1748,1079,0,0,18,7080,0,0,0,0,2187,42,0,0,6400,0,13871,551,0,0,0,0,0,0,0,0],"split_type":[0,0,0,0,0,0,0,0,0,0,0,0,0,0,0,0,0,0,0,0,0,0,0,0,0,0,0,0,0,0,0,0,0],"sum_hessian":[2.4954808E2,1.80967E2,6.858109E1,1.5873186E2,2.2235132E1,5.8687664E1,9.893429E0,8.100353E0,1.506315E2,1.9260262E1,2.9748712E0,2.8266933E0,5.5860973E1,2.6761444E0,7.2172847E0,6.101498E0,1.998855E0,1.4642949E2,4.202023E0,1.328814E0,1.4978791E0,5.4609398E1,1.2515738E0,1.4001219E2,6.4172864E0,1.2494154E0,2.9526076E0,1.0015754E0,5.3607822E1,1.3766142E2,2.3507743E0,3.9312122E0,2.4860742E0],"tree_param":{"num_deleted":"0","num_feature":"20530","num_nodes":"33","size_leaf_vector":"1"}},{"base_weights":[1.4936323E-2,-4.01802E-1,4.8597738E-1,2.2967936E-1,-4.9931574E-1,6.7825305E-1,-4.8322544E-1,6.208199E-1,-4.712179E-2,-5.293138E-1,5.5312067E-2,-4.6297163E-2,7.5097895E-1,1.02673685E-2,-5.3253025E-2,-3.5702936E-2,8.731436E-2,5.5704053E-2,-5.5090797E-1,2.0272847E-2,8.290466E-1,1.3534834E-2,-5.6167353E-2,-4.744699E-2,6.828184E-2,-1.904954E-1,8.7786E-1,-3.5649374E-2,1.1340077E-2,9.093158E-2,-3.304281E-2],"categories":[],"categories_nodes":[],"categories_segments":[],"categories_sizes":[],"default_left":[0,0,0,0,0,0,0,0,0,0,0,0,0,0,0,0,0,0,0,0,0,0,0,0,0,0,0,0,0,0,0],"id":38,"left_children":[1,3,5,7,9,11,13,15,-1,17,-1,-1,19,-1,-1,-1,-1,-1,21,23,25,-1,-1,-1,-1,27,29,-1,-1,-1,-1],"loss_changes":[3.6357166E1,6.167181E0,1.6526953E1,4.0847473E0,2.9907475E0,6.402504E0,4.8724604E-1,2.6087449E0,0E0,2.268036E0,0E0,0E0,3.9171982E0,0E0,0E0,0E0,0E0,0E0,6.8532944E-1,2.842008E0,3.2668266E0,0E0,0E0,0E0,0E0,2.2543135E-1,2.566269E0,0E0,0E0,0E0,0E0],"parents":[2147483647,0,0,1,1,2,2,3,3,4,4,5,5,6,6,7,7,9,9,12,12,18,18,19,19,20,20,25,25,26,26],"right_children":[2,4,6,8,10,12,14,16,-1,18,-1,-1,20,-1,-1,-1,-1,-1,22,24,26,-1,-1,-1,-1,28,30,-1,-1,-1,-1],"split_conditions":[4.144764E-1,-9.872261E-1,-2.8192548E-2,-1.6751648E-1,1.688914E0,-4.501924E-1,-1.5377772E0,-4.0643874E-1,-4.712179E-2,-2.381997E0,5.5312067E-2,-4.6297163E-2,-5.907517E-1,1.02673685E-2,-5.3253025E-2,-3.5702936E-2,8.731436E-2,5.5704053E-2,-2.0833738E0,6.938269E-1,8.004009E-2,1.3534834E-2,-5.6167353E-2,-4.744699E-2,6.828184E-2,-2.7102718E-1,2.813592E-1,-3.5649374E-2,1.1340077E-2,9.093158E-2,-3.304281E-2],"split_indices":[9478,12369,4713,10189,8320,9921,672,3649,0,5861,0,0,16048,0,0,0,0,0,17833,2939,7045,0,0,0,0,0,14203,0,0,0,0],"split_type":[0,0,0,0,0,0,0,0,0,0,0,0,0,0,0,0,0,0,0,0,0,0,0,0,0,0,0,0,0,0,0],"sum_hessian":[1.8321672E2,9.728976E1,8.592697E1,1.2832629E1,8.445713E1,7.195278E1,1.3974188E1,8.309631E0,4.5229974E0,8.259981E1,1.8573217E0,3.9891086E0,6.796368E1,1.0006644E0,1.2973523E1,1.6192935E0,6.690338E0,1.126611E0,8.14732E1,6.6818533E0,6.128182E1,1.0796224E0,8.039357E1,3.9878635E0,2.6939898E0,2.6673617E0,5.8614456E1,1.6131353E0,1.0542264E0,5.73684E1,1.2460568E0],"tree_param":{"num_deleted":"0","num_feature":"20530","num_nodes":"31","size_leaf_vector":"1"}},{"base_weights":[-1.4771782E-1,-5.272722E-1,7.25469E-1,-5.58122E-2,3.961035E-1,8.8904005E-1,-1.969536E-1,-3.169959E-2,8.1118636E-2,-3.8650896E-2,9.675594E-1,-4.8446774E-2,6.578945E-2,9.9101804E-2,7.4157263E-3],"categories":[],"categories_nodes":[],"categories_segments":[],"categories_sizes":[],"default_left":[0,0,0,0,0,0,0,0,0,0,0,0,0,0,0],"id":39,"left_children":[1,3,5,-1,7,9,11,-1,-1,-1,13,-1,-1,-1,-1],"loss_changes":[5.3125404E1,3.3973675E0,7.513586E0,0E0,1.497298E0,4.5297127E0,2.3204527E0,0E0,0E0,0E0,7.5167465E-1,0E0,0E0,0E0,0E0],"parents":[2147483647,0,0,1,1,2,2,4,4,5,5,6,6,10,10],"right_children":[2,4,6,-1,8,10,12,-1,-1,-1,14,-1,-1,-1,-1],"split_conditions":[8.53871E-1,1.608393E0,-1.433681E-1,-5.58122E-2,-2.6043085E-2,-4.6210855E-1,6.5543497E-1,-3.169959E-2,8.1118636E-2,-3.8650896E-2,1.567538E0,-4.8446774E-2,6.578945E-2,9.9101804E-2,7.4157263E-3],"split_indices":[7354,12386,20038,0,17,11055,1201,0,0,0,11282,0,0,0,0],"split_type":[0,0,0,0,0,0,0,0,0,0,0,0,0,0,0],"sum_hessian":[1.5814122E2,1.1050387E2,4.763736E1,1.0731409E2,3.1897795E0,4.0493015E1,7.1443424E0,1.2605319E0,1.9292475E0,2.1206434E0,3.837237E1,5.6704497E0,1.4738925E0,3.7284115E1,1.0882564E0],"tree_param":{"num_deleted":"0","num_feature":"20530","num_nodes":"15","size_leaf_vector":"1"}},{"base_weights":[-9.592044E-2,7.2584474E-1,-5.384933E-1,-4.7902193E-2,8.6555046E-1,-5.539558E-2,4.3828957E-2,-2.9803142E-2,8.973137E-2],"categories":[],"categories_nodes":[],"categories_segments":[],"categories_sizes":[],"default_left":[0,0,0,0,0,0,0,0,0],"id":40,"left_children":[1,3,5,-1,7,-1,-1,-1,-1],"loss_changes":[5.7914856E1,9.805784E0,1.8041325E0,0E0,2.1283417E0,0E0,0E0,0E0,0E0],"parents":[2147483647,0,0,1,1,2,2,4,4],"right_children":[2,4,6,-1,8,-1,-1,-1,-1],"split_conditions":[-8.873315E-1,2.073632E-1,2.5890448E0,-4.7902193E-2,-7.1825415E-1,-5.539558E-2,4.3828957E-2,-2.9803142E-2,8.973137E-2],"split_indices":[19752,15500,10673,0,3478,0,0,0,0],"split_type":[0,0,0,0,0,0,0,0,0],"sum_hessian":[1.5716724E2,5.4791267E1,1.0237598E2,5.4406433E0,4.9350624E1,1.0120675E2,1.1692305E0,1.0886128E0,4.8262012E1],"tree_param":{"num_deleted":"0","num_feature":"20530","num_nodes":"9","size_leaf_vector":"1"}},{"base_weights":[-2.8005174E-1,-4.5451856E-1,5.759451E-1,-5.1057297E-1,4.5444128E-1,7.4450415E-1,-4.201185E-2,-5.4095936E-1,5.452056E-1,-3.7234318E-2,8.42546E-2,8.345541E-1,-3.241842E-2,-5.49359E-2,1.6310465E-2,6.731818E-2,1.1599602E-2,9.0236306E-2,-1.2800798E-3],"categories":[],"categories_nodes":[],"categories_segments":[],"categories_sizes":[],"default_left":[0,0,0,0,0,0,0,0,0,0,0,0,0,0,0,0,0,0,0],"id":41,"left_children":[1,3,5,7,9,11,-1,13,15,-1,-1,17,-1,-1,-1,-1,-1,-1,-1],"loss_changes":[2.0484612E1,5.9917755E0,4.2360873E0,3.7259903E0,2.590497E0,2.2285757E0,0E0,7.0736504E-1,1.1361599E-1,0E0,0E0,1.105834E0,0E0,0E0,0E0,0E0,0E0,0E0,0E0],"parents":[2147483647,0,0,1,1,2,2,3,3,4,4,5,5,7,7,8,8,11,11],"right_children":[2,4,6,8,10,12,-1,14,16,-1,-1,18,-1,-1,-1,-1,-1,-1,-1],"split_conditions":[1.4946629E0,1.9220257E0,-5.3143364E-1,2.185971E0,4.1658664E-1,7.352379E-1,-4.201185E-2,2.611506E0,-9.787445E-1,-3.7234318E-2,8.42546E-2,1.1513175E0,-3.241842E-2,-5.49359E-2,1.6310465E-2,6.731818E-2,1.1599602E-2,9.0236306E-2,-1.2800798E-3],"split_indices":[11686,11613,15882,19687,7591,19568,0,2083,7,0,0,19838,0,0,0,0,0,0,0],"split_type":[0,0,0,0,0,0,0,0,0,0,0,0,0,0,0,0,0,0,0],"sum_hessian":[1.3441196E2,1.1204441E2,2.2367552E1,1.0594896E2,6.095451E0,1.9346235E1,3.0213165E0,1.0345893E2,2.490031E0,1.9602073E0,4.1352434E0,1.8044825E1,1.3014096E0,1.0245633E2,1.0025954E0,1.4802479E0,1.0097833E0,1.6647688E1,1.3971366E0],"tree_param":{"num_deleted":"0","num_feature":"20530","num_nodes":"19","size_leaf_vector":"1"}},{"base_weights":[2.967712E-1,5.0097144E-1,-4.4077685E-1,6.1922556E-1,-4.0596896E-1,-5.1689494E-1,3.9734668E-1,7.538828E-1,2.4515902E-1,-5.6007337E-2,6.1467417E-2,-5.738408E-2,1.91156E-1,-3.0342722E-2,6.600563E-2,7.875817E-1,-1.8873656E-1,-2.9074007E-1,5.798708E-1,5.733944E-2,-3.457041E-2,8.0421257E-1,-3.7881475E-2,-4.501426E-2,3.4587763E-2,5.8849614E-2,-4.8027638E-1,-4.4515457E-2,7.1968436E-1,-1.9160004E-2,8.237243E-2,-5.6812983E-2,3.1459365E-2,-3.7000768E-2,8.135736E-2],"categories":[],"categories_nodes":[],"categories_segments":[],"categories_sizes":[],"default_left":[0,0,0,0,0,0,0,0,0,0,0,0,0,0,0,0,0,0,0,0,0,0,0,0,0,0,0,0,0,0,0,0,0,0,0],"id":42,"left_children":[1,3,5,7,9,11,13,15,17,-1,-1,-1,19,-1,-1,21,23,25,27,-1,-1,29,-1,-1,-1,-1,31,-1,33,-1,-1,-1,-1,-1,-1],"loss_changes":[3.6785553E1,2.0693886E1,3.5977287E0,8.328697E0,3.897369E0,2.0927372E0,1.119416E0,4.0810776E0,8.459163E0,0E0,0E0,0E0,1.1034397E0,0E0,0E0,2.6269531E0,8.6558795E-1,3.3548875E0,4.445533E0,0E0,0E0,2.4574509E0,0E0,0E0,0E0,0E0,1.276273E0,0E0,2.931594E0,0E0,0E0,0E0,0E0,0E0,0E0],"parents":[2147483647,0,0,1,1,2,2,3,3,4,4,5,5,6,6,7,7,8,8,12,12,15,15,16,16,17,17,18,18,21,21,26,26,28,28],"right_children":[2,4,6,8,10,12,14,16,18,-1,-1,-1,20,-1,-1,22,24,26,28,-1,-1,30,-1,-1,-1,-1,32,-1,34,-1,-1,-1,-1,-1,-1],"split_conditions":[5.4900473E-1,7.0600235E-1,2.546545E-1,2.1788272E-1,4.880858E-1,1.5251775E0,6.387299E-1,1.5400376E0,-5.797991E-1,-5.6007337E-2,6.1467417E-2,-5.738408E-2,-4.7852066E-1,-3.0342722E-2,6.600563E-2,1.6864346E0,1.130261E0,-8.9132655E-1,-1.198863E0,5.733944E-2,-3.457041E-2,-2.0446942E0,-3.7881475E-2,-4.501426E-2,3.4587763E-2,5.8849614E-2,1.5207065E0,-4.4515457E-2,-8.1947595E-1,-1.9160004E-2,8.237243E-2,-5.6812983E-2,3.1459365E-2,-3.7000768E-2,8.135736E-2],"split_indices":[18341,18492,5522,7289,18503,1725,3,4442,7810,0,0,0,5,0,0,13778,328,11829,10759,0,0,2802,0,0,0,0,2876,0,7476,0,0,0,0,0,0],"split_type":[0,0,0,0,0,0,0,0,0,0,0,0,0,0,0,0,0,0,0,0,0,0,0,0,0,0,0,0,0,0,0,0,0,0,0],"sum_hessian":[2.4178165E2,1.896071E2,5.2174553E1,1.6801695E2,2.1590153E1,4.8181957E1,3.992596E0,1.227969E2,4.5220047E1,1.9149996E1,2.4401565E0,4.4770763E1,3.411194E0,1.046386E0,2.94621E0,1.1871721E2,4.079691E0,1.7435637E1,2.7784409E1,1.9527828E0,1.4584113E0,1.1735444E2,1.3627671E0,2.8460736E0,1.2336171E0,2.718751E0,1.4716886E1,3.072782E0,2.4711628E1,2.0857315E0,1.1526871E2,1.3509046E1,1.2078401E0,1.726993E0,2.2984634E1],"tree_param":{"num_deleted":"0","num_feature":"20530","num_nodes":"35","size_leaf_vector":"1"}},{"base_weights":[1.5591249E-2,-3.9217433E-1,4.5865315E-1,4.3422478E-1,-4.6451274E-1,6.6480136E-1,-3.5154554E-1,-3.9938208E-2,8.686189E-2,3.302441E-1,-5.270497E-1,-4.5316674E-2,7.388563E-1,-5.2872207E-2,3.7246385E-1,-3.989908E-2,8.1427865E-2,-5.56111E-2,1.6813804E-1,-4.4776443E-3,8.0954725E-1,-3.0706549E-2,7.352602E-2,-3.389725E-2,6.0337044E-2,6.987977E-2,-4.5850452E-2,8.376893E-1,-3.2868642E-2,8.638357E-2,-3.1916775E-2],"categories":[],"categories_nodes":[],"categories_segments":[],"categories_sizes":[],"default_left":[0,0,0,0,0,0,0,0,0,0,0,0,0,0,0,0,0,0,0,0,0,0,0,0,0,0,0,0,0,0,0],"id":43,"left_children":[1,3,5,7,9,11,13,-1,-1,15,17,-1,19,-1,21,-1,-1,-1,23,25,27,-1,-1,-1,-1,-1,-1,29,-1,-1,-1],"loss_changes":[3.2176323E1,5.7471857E0,1.4487129E1,3.2377906E0,4.4375153E0,5.9957047E0,2.5012622E0,0E0,0E0,2.75062E0,1.7079029E0,0E0,3.3933105E0,0E0,1.2410896E0,0E0,0E0,0E0,1.0816904E0,2.4266815E0,2.1623993E0,0E0,0E0,0E0,0E0,0E0,0E0,2.0231667E0,0E0,0E0,0E0],"parents":[2147483647,0,0,1,1,2,2,3,3,4,4,5,5,6,6,9,9,10,10,12,12,14,14,18,18,19,19,20,20,27,27],"right_children":[2,4,6,8,10,12,14,-1,-1,16,18,-1,20,-1,22,-1,-1,-1,24,26,28,-1,-1,-1,-1,-1,-1,30,-1,-1,-1],"split_conditions":[4.144764E-1,-1.312498E0,1.4741158E-1,3.9379314E-1,-1.6204894E0,-4.8050252E-1,1.1070459E0,-3.9938208E-2,8.686189E-2,-1.19898066E-1,1.9662352E0,-4.5316674E-2,-1.256573E-2,-5.2872207E-2,9.8875135E-2,-3.989908E-2,8.1427865E-2,-5.56111E-2,1.0387156E0,-8.538034E-1,2.6649091E0,-3.0706549E-2,7.352602E-2,-3.389725E-2,6.0337044E-2,6.987977E-2,-4.5850452E-2,1.6143041E0,-3.2868642E-2,8.638357E-2,-3.1916775E-2],"split_indices":[9478,13468,12367,3582,6213,9921,11790,0,0,16806,3259,0,18341,0,82,0,0,0,15,3141,842,0,0,0,0,0,0,19597,0,0,0],"split_type":[0,0,0,0,0,0,0,0,0,0,0,0,0,0,0,0,0,0,0,0,0,0,0,0,0,0,0,0,0,0,0],"sum_hessian":[1.7610338E2,9.17643E1,8.433909E1,6.9833446E0,8.478095E1,6.7375435E1,1.6963654E1,2.419979E0,4.5633655E0,5.872246E0,7.890871E1,3.8676875E0,6.3507748E1,1.3845235E1,3.1184175E0,2.4128308E0,3.4594154E0,7.593444E1,2.9742677E0,5.596432E0,5.7911316E1,1.1388774E0,1.9795401E0,1.4758507E0,1.4984169E0,1.9840624E0,3.6123698E0,5.6771717E1,1.1395968E0,5.576466E1,1.0070598E0],"tree_param":{"num_deleted":"0","num_feature":"20530","num_nodes":"31","size_leaf_vector":"1"}},{"base_weights":[-1.4342022E-1,-5.207168E-1,6.7942584E-1,-5.525772E-2,3.778988E-1,-1.7365588E-1,8.313046E-1,-3.0780358E-2,7.588655E-2,7.205863E-2,-4.7746673E-2,8.844231E-1,-3.4290764E-2,-5.3123007E-5,9.144535E-2],"categories":[],"categories_nodes":[],"categories_segments":[],"categories_sizes":[],"default_left":[0,0,0,0,0,0,0,0,0,0,0,0,0,0,0],"id":44,"left_children":[1,3,5,-1,7,9,11,-1,-1,-1,-1,13,-1,-1,-1],"loss_changes":[4.7366096E1,3.197527E0,6.3686256E0,0E0,1.322459E0,2.541245E0,2.8575706E0,0E0,0E0,0E0,0E0,1.0491371E0,0E0,0E0,0E0],"parents":[2147483647,0,0,1,1,2,2,4,4,5,5,6,6,11,11],"right_children":[2,4,6,-1,8,10,12,-1,-1,-1,-1,14,-1,-1,-1],"split_conditions":[8.53871E-1,1.608393E0,4.4244114E-1,-5.525772E-2,-2.6043085E-2,-9.700729E-1,7.368851E-2,-3.0780358E-2,7.588655E-2,7.205863E-2,-4.7746673E-2,2.3676096E-2,-3.4290764E-2,-5.3123007E-5,9.144535E-2],"split_indices":[7354,12386,20007,0,17,274,3582,0,0,0,0,20515,0,0,0],"split_type":[0,0,0,0,0,0,0,0,0,0,0,0,0,0,0],"sum_hessian":[1.504294E2,1.0338969E2,4.703971E1,1.0022141E2,3.1682744E0,7.0873995E0,3.9952312E1,1.2001567E0,1.9681177E0,1.4493961E0,5.6380033E0,3.84593E1,1.49301E0,1.2945004E0,3.7164803E1],"tree_param":{"num_deleted":"0","num_feature":"20530","num_nodes":"15","size_leaf_vector":"1"}},{"base_weights":[-9.3843624E-2,6.8288386E-1,-5.325769E-1,-4.7052827E-2,8.118424E-1,-5.4862406E-2,4.219838E-2,8.4193185E-2,-2.9218987E-2],"categories":[],"categories_nodes":[],"categories_segments":[],"categories_sizes":[],"default_left":[0,0,0,0,0,0,0,0,0],"id":45,"left_children":[1,3,5,-1,7,-1,-1,-1,-1],"loss_changes":[5.150122E1,8.504005E0,1.7090359E0,0E0,1.8897285E0,0E0,0E0,0E0,0E0],"parents":[2147483647,0,0,1,1,2,2,4,4],"right_children":[2,4,6,-1,8,-1,-1,-1,-1],"split_conditions":[-8.873315E-1,2.073632E-1,2.0569308E0,-4.7052827E-2,-2.755522E-1,-5.4862406E-2,4.219838E-2,8.4193185E-2,-2.9218987E-2],"split_indices":[19752,15500,10051,0,10276,0,0,0,0],"split_type":[0,0,0,0,0,0,0,0,0],"sum_hessian":[1.4906192E2,5.3604588E1,9.545733E1,5.124257E0,4.848033E1,9.4297356E1,1.1599681E0,4.74252E1,1.0551317E0],"tree_param":{"num_deleted":"0","num_feature":"20530","num_nodes":"9","size_leaf_vector":"1"}},{"base_weights":[-2.7261955E-1,-4.469858E-1,5.435514E-1,1.4464478E-1,-5.358877E-1,6.983298E-1,-4.1010346E-2,-4.8358236E-2,7.998604E-1,-5.4436214E-2,1.1892286E-2,-3.1659342E-2,7.824031E-1,9.084792E-2,7.7412077E-3,8.62931E-2,-6.671416E-3],"categories":[],"categories_nodes":[],"categories_segments":[],"categories_sizes":[],"default_left":[0,0,0,0,0,0,0,0,0,0,0,0,0,0,0,0,0],"id":46,"left_children":[1,3,5,7,9,11,-1,-1,13,-1,-1,-1,15,-1,-1,-1,-1],"loss_changes":[1.8444225E1,5.649189E0,3.676156E0,6.4071584E0,5.769501E-1,1.96521E0,0E0,0E0,5.210285E-1,0E0,0E0,0E0,1.3483047E0,0E0,0E0,0E0,0E0],"parents":[2147483647,0,0,1,1,2,2,3,3,4,4,5,5,8,8,12,12],"right_children":[2,4,6,8,10,12,-1,-1,14,-1,-1,-1,16,-1,-1,-1,-1],"split_conditions":[1.4946629E0,-1.1936277E0,-5.3143364E-1,1.3556284E-1,1.9854213E0,-1.1698885E0,-4.1010346E-2,-4.8358236E-2,-5.3446496E-1,-5.4436214E-2,1.1892286E-2,-3.1659342E-2,1.0308778E0,9.084792E-2,7.7412077E-3,8.62931E-2,-6.671416E-3],"split_indices":[11686,11642,15882,14836,17069,9120,0,0,350,0,0,0,7127,0,0,0,0],"split_type":[0,0,0,0,0,0,0,0,0,0,0,0,0,0,0,0,0],"sum_hessian":[1.2689629E2,1.0493119E2,2.1965101E1,1.3625863E1,9.130533E1,1.9128305E1,2.8367963E0,7.089924E0,6.5359387E0,9.030529E1,1.0000367E0,1.2517408E0,1.7876564E1,5.4578595E0,1.0780792E0,1.6313198E1,1.5633662E0],"tree_param":{"num_deleted":"0","num_feature":"20530","num_nodes":"17","size_leaf_vector":"1"}},{"base_weights":[2.83587E-1,-3.3741078E-1,5.0623953E-1,3.081671E-1,-5.225215E-1,6.829609E-1,5.3213625E-3,-4.416021E-2,5.4248595E-1,-5.6581218E-2,4.102104E-2,7.2569966E-1,-2.6752618E-1,-2.702298E-1,6.483746E-1,7.5422205E-2,-2.1167372E-1,7.5563717E-1,1.0295125E-1,3.3677824E-2,-4.8040055E-2,3.6528686E-1,-4.3061978E-1,7.612509E-2,-3.321513E-2,3.6678133E-3,-3.3571254E-2,7.704768E-1,-1.4548162E-2,6.2286653E-2,-4.441214E-2,6.9157206E-2,-3.8321305E-2,-5.617953E-2,3.032412E-1,-1.19256675E-2,7.8339525E-2,6.287941E-2,-3.275464E-2],"categories":[],"categories_nodes":[],"categories_segments":[],"categories_sizes":[],"default_left":[0,0,0,0,0,0,0,0,0,0,0,0,0,0,0,0,0,0,0,0,0,0,0,0,0,0,0,0,0,0,0,0,0,0,0,0,0,0,0],"id":47,"left_children":[1,3,5,7,9,11,13,-1,15,-1,-1,17,19,21,23,-1,25,27,29,-1,-1,31,33,-1,-1,-1,-1,35,-1,-1,-1,-1,-1,-1,37,-1,-1,-1,-1],"loss_changes":[3.2474854E1,7.601326E0,1.5255554E1,2.7875385E0,2.200842E0,5.370037E0,8.319337E0,0E0,1.9957664E0,0E0,0E0,2.200447E0,9.6107304E-1,3.5088222E0,1.8113256E0,0E0,1.14016E-1,1.6691437E0,2.200196E0,0E0,0E0,2.0153923E0,2.7419147E0,0E0,0E0,0E0,0E0,1.4118881E0,0E0,0E0,0E0,0E0,0E0,0E0,1.1711903E0,0E0,0E0,0E0,0E0],"parents":[2147483647,0,0,1,1,2,2,3,3,4,4,5,5,6,6,8,8,11,11,12,12,13,13,14,14,16,16,17,17,18,18,21,21,22,22,27,27,34,34],"right_children":[2,4,6,8,10,12,14,-1,16,-1,-1,18,20,22,24,-1,26,28,30,-1,-1,32,34,-1,-1,-1,-1,36,-1,-1,-1,-1,-1,-1,38,-1,-1,-1,-1],"split_conditions":[5.2126865E-3,-3.8734746E-1,3.9118356E-1,-6.4209366E-1,6.735591E-1,1.3069503E0,4.512497E-1,-4.416021E-2,-2.1122816E-1,-5.6581218E-2,4.102104E-2,7.072615E-1,-1.1113956E0,-1.5969153E-1,7.2298896E-1,7.5422205E-2,-9.534256E-1,9.255885E-1,-4.8592946E-1,3.3677824E-2,-4.8040055E-2,1.4473827E-1,1.5961887E0,7.612509E-2,-3.321513E-2,3.6678133E-3,-3.3571254E-2,-2.1027443E0,-1.4548162E-2,6.2286653E-2,-4.441214E-2,6.9157206E-2,-3.8321305E-2,-5.617953E-2,-1.5238243E-1,-1.19256675E-2,7.8339525E-2,6.287941E-2,-3.275464E-2],"split_indices":[5471,10741,7289,8116,19543,13767,3530,0,20464,0,0,18477,50,8963,1722,0,22,10375,1565,0,0,2208,13841,0,0,0,0,12497,0,0,0,0,0,0,202,0,0,0,0],"split_type":[0,0,0,0,0,0,0,0,0,0,0,0,0,0,0,0,0,0,0,0,0,0,0,0,0,0,0,0,0,0,0,0,0,0,0,0,0,0,0],"sum_hessian":[2.3263573E2,6.1260174E1,1.7137555E2,1.3503085E1,4.7757088E1,1.2641393E2,4.496162E1,3.0045524E0,1.0498532E1,4.60148E1,1.7422899E0,1.2120063E2,5.2133E0,3.188047E1,1.3081151E1,8.1970625E0,2.3014703E0,1.1543778E2,5.762852E0,1.2064362E0,4.006864E0,6.167069E0,2.5713402E1,1.1931275E1,1.149876E0,1.0011861E0,1.3002841E0,1.1371017E2,1.7276089E0,2.88373E0,2.8791223E0,4.347826E0,1.8192428E0,2.201309E1,3.7003102E0,1.509564E0,1.1220061E2,2.4427526E0,1.2575577E0],"tree_param":{"num_deleted":"0","num_feature":"20530","num_nodes":"39","size_leaf_vector":"1"}},{"base_weights":[1.582429E-2,4.022012E-1,-4.1893947E-1,-2.249784E-1,6.5073305E-1,2.986909E-1,-5.1128584E-1,-4.2601672E-1,4.7605047E-1,-4.5430396E-2,7.320714E-1,-4.3141264E-2,7.519486E-2,3.844337E-2,-5.316616E-1,-5.3406514E-2,5.908534E-2,-3.4571823E-2,7.816922E-2,7.857564E-1,-3.289528E-2,-5.512617E-2,2.0381546E-2,8.149401E-1,-3.173111E-2,-4.0635854E-2,5.10031E-2,8.437971E-2,5.4627676E-3],"categories":[],"categories_nodes":[],"categories_segments":[],"categories_sizes":[],"default_left":[0,0,0,0,0,0,0,0,0,0,0,0,0,0,0,0,0,0,0,0,0,0,0,0,0,0,0,0,0],"id":48,"left_children":[1,3,5,7,9,11,13,15,17,-1,19,-1,-1,-1,21,-1,-1,-1,-1,23,25,-1,-1,27,-1,-1,-1,-1,-1],"loss_changes":[2.8621918E1,1.4205045E1,5.467005E0,3.915022E0,6.1616116E0,3.5588217E0,1.5078182E0,2.622589E0,1.8632814E0,0E0,2.522274E0,0E0,0E0,0E0,1.1250114E0,0E0,0E0,0E0,0E0,2.08844E0,1.2101583E0,0E0,0E0,1.1750565E0,0E0,0E0,0E0,0E0,0E0],"parents":[2147483647,0,0,1,1,2,2,3,3,4,4,5,5,6,6,7,7,8,8,10,10,14,14,19,19,20,20,23,23],"right_children":[2,4,6,8,10,12,14,16,18,-1,20,-1,-1,-1,22,-1,-1,-1,-1,24,26,-1,-1,28,-1,-1,-1,-1,-1],"split_conditions":[-3.4115687E-1,2.1073356E-1,-9.627557E-1,7.150118E-1,-4.501924E-1,5.0187784E-1,-2.0851328E0,1.3415583E0,-5.548272E-1,-4.5430396E-2,-5.8834627E-2,-4.3141264E-2,7.519486E-2,3.844337E-2,1.9448473E0,-5.3406514E-2,5.908534E-2,-3.4571823E-2,7.816922E-2,1.3823177E0,4.0418455E-1,-5.512617E-2,2.0381546E-2,1.577271E0,-3.173111E-2,-4.0635854E-2,5.10031E-2,8.437971E-2,5.4627676E-3],"split_indices":[11184,7289,14184,3108,9921,16733,12725,3358,2365,0,12135,0,0,0,12599,0,0,0,0,18183,268,0,0,3718,0,0,0,0,0],"split_type":[0,0,0,0,0,0,0,0,0,0,0,0,0,0,0,0,0,0,0,0,0,0,0,0,0,0,0,0,0],"sum_hessian":[1.6838306E2,8.919228E1,7.919077E1,2.5340172E1,6.3852116E1,8.773881E0,7.041689E1,1.9997627E1,5.342543E0,4.0633497E0,5.9788765E1,3.3790815E0,5.394799E0,1.1688098E0,6.9248085E1,1.8506046E1,1.4915811E0,1.4128195E0,3.9297235E0,5.5842583E1,3.9461827E0,6.769453E1,1.5535543E0,5.465772E1,1.1848652E0,2.4869926E0,1.4591902E0,5.25533E1,2.1044197E0],"tree_param":{"num_deleted":"0","num_feature":"20530","num_nodes":"29","size_leaf_vector":"1"}},{"base_weights":[-1.392316E-1,-5.14495E-1,6.412177E-1,-5.4735817E-2,3.602597E-1,-4.394235E-2,7.432907E-1,-2.9867107E-2,7.115255E-2,-3.6303304E-2,8.015918E-1,8.4102356E-1,-3.0414611E-2,8.606731E-2,5.794481E-3],"categories":[],"categories_nodes":[],"categories_segments":[],"categories_sizes":[],"default_left":[0,0,0,0,0,0,0,0,0,0,0,0,0,0,0],"id":49,"left_children":[1,3,5,-1,7,-1,9,-1,-1,-1,11,13,-1,-1,-1],"loss_changes":[4.237271E1,2.9999065E0,5.5172195E0,0E0,1.1691809E0,0E0,3.0881996E0,0E0,0E0,0E0,2.0655975E0,5.709152E-1,0E0,0E0,0E0],"parents":[2147483647,0,0,1,1,2,2,4,4,6,6,10,10,11,11],"right_children":[2,4,6,-1,8,-1,10,-1,-1,-1,12,14,-1,-1,-1],"split_conditions":[8.53871E-1,1.608393E0,2.762158E-1,-5.4735817E-2,-2.6043085E-2,-4.394235E-2,-6.424476E-1,-2.9867107E-2,7.115255E-2,-3.6303304E-2,7.7253187E-1,2.8926086E-1,-3.0414611E-2,8.606731E-2,5.794481E-3],"split_indices":[7354,12386,4900,0,17,0,2816,0,0,0,19186,20160,0,0,0],"split_type":[0,0,0,0,0,0,0,0,0,0,0,0,0,0,0],"sum_hessian":[1.425525E2,9.649539E1,4.6057106E1,9.33622E1,3.133195E0,3.6896799E0,4.2367428E1,1.1415391E0,1.991656E0,1.8592566E0,4.050817E1,3.9344505E1,1.163663E0,3.828475E1,1.059755E0],"tree_param":{"num_deleted":"0","num_feature":"20530","num_nodes":"15","size_leaf_vector":"1"}},{"base_weights":[-9.198206E-2,6.4655E-1,-5.269912E-1,-4.618561E-2,7.668052E-1,4.0632516E-2,-5.436309E-2,7.9573005E-2,-2.8664324E-2],"categories":[],"categories_nodes":[],"categories_segments":[],"categories_sizes":[],"default_left":[0,0,0,0,0,0,0,0,0],"id":50,"left_children":[1,3,5,-1,7,-1,-1,-1,-1],"loss_changes":[4.592073E1,7.423868E0,1.6160507E0,0E0,1.697525E0,0E0,0E0,0E0,0E0],"parents":[2147483647,0,0,1,1,2,2,4,4],"right_children":[2,4,6,-1,8,-1,-1,-1,-1],"split_conditions":[-8.873315E-1,2.073632E-1,-2.6897163E0,-4.618561E-2,2.891458E-1,4.0632516E-2,-5.436309E-2,7.9573005E-2,-2.8664324E-2],"split_indices":[19752,15500,95,0,3659,0,0,0,0],"split_type":[0,0,0,0,0,0,0,0,0],"sum_hessian":[1.4087524E2,5.2039486E1,8.883576E1,4.8153343E0,4.722415E1,1.1458579E0,8.76899E1,4.6200256E1,1.0238924E0],"tree_param":{"num_deleted":"0","num_feature":"20530","num_nodes":"9","size_leaf_vector":"1"}},{"base_weights":[-2.6610515E-1,-4.4008785E-1,5.14839E-1,1.4086005E-1,-5.308318E-1,6.58596E-1,-4.0037107E-2,-4.760518E-2,7.462931E-1,-5.3969618E-2,1.1052739E-2,-3.0778786E-2,7.3734736E-1,6.915629E-3,8.4642135E-2,-3.4099054E-3,7.9844885E-2],"categories":[],"categories_nodes":[],"categories_segments":[],"categories_sizes":[],"default_left":[0,0,0,0,0,0,0,0,0,0,0,0,0,0,0,0,0],"id":51,"left_children":[1,3,5,7,9,11,-1,-1,13,-1,-1,-1,15,-1,-1,-1,-1],"loss_changes":[1.6598892E1,5.298237E0,3.2127986E0,5.650106E0,5.4805374E-1,1.7300301E0,0E0,0E0,4.5296383E-1,0E0,0E0,0E0,9.019213E-1,0E0,0E0,0E0,0E0],"parents":[2147483647,0,0,1,1,2,2,3,3,4,4,5,5,8,8,12,12],"right_children":[2,4,6,8,10,12,-1,-1,14,-1,-1,-1,16,-1,-1,-1,-1],"split_conditions":[1.4946629E0,-1.1936277E0,-5.3143364E-1,1.3556284E-1,2.5653856E0,-1.1654432E0,-4.0037107E-2,-4.760518E-2,-5.3996736E-1,-5.3969618E-2,1.1052739E-2,-3.0778786E-2,-1.6234158E0,6.915629E-3,8.4642135E-2,-3.4099054E-3,7.9844885E-2],"split_indices":[11686,11642,15882,14836,5086,776,0,0,79,0,0,0,5539,0,0,0,0],"split_type":[0,0,0,0,0,0,0,0,0,0,0,0,0,0,0,0,0],"sum_hessian":[1.1949918E2,9.8084E1,2.1415184E1,1.3176302E1,8.490769E1,1.8750355E1,2.6648304E0,6.6321297E0,6.544172E0,8.3906525E1,1.0011735E0,1.1937021E0,1.7556652E1,1.0608232E0,5.4833484E0,1.3209324E0,1.623572E1],"tree_param":{"num_deleted":"0","num_feature":"20530","num_nodes":"17","size_leaf_vector":"1"}},{"base_weights":[2.722526E-1,4.5552525E-1,-4.2416334E-1,5.595909E-1,-3.8897428E-1,-5.007243E-1,3.6194986E-1,6.782824E-1,2.2464505E-1,-5.4220255E-2,5.492186E-2,-5.5839427E-2,1.766328E-1,5.695215E-2,-7.903616E-3,7.0868814E-1,-1.902593E-1,-2.740651E-1,5.263711E-1,5.1583566E-2,-3.2251637E-2,7.2427785E-1,-3.6321376E-2,2.9440423E-2,-4.2797625E-2,5.3237345E-2,-4.6146676E-1,-4.23255E-2,6.507736E-1,-1.8268134E-2,7.421469E-2,2.8905435E-2,-5.4877E-2,-3.4448754E-2,7.3213816E-2],"categories":[],"categories_nodes":[],"categories_segments":[],"categories_sizes":[],"default_left":[0,0,0,0,0,0,0,0,0,0,0,0,0,0,0,0,0,0,0,0,0,0,0,0,0,0,0,0,0,0,0,0,0,0,0],"id":52,"left_children":[1,3,5,7,9,11,13,15,17,-1,-1,-1,19,-1,-1,21,23,25,27,-1,-1,29,-1,-1,-1,-1,31,-1,33,-1,-1,-1,-1,-1,-1],"loss_changes":[2.8747164E1,1.5824936E1,3.0175838E0,6.1495247E0,3.1834555E0,1.7925568E0,4.8098624E-1,3.2126884E0,6.610179E0,0E0,0E0,0E0,8.7104523E-1,0E0,0E0,2.1483078E0,6.710015E-1,2.7929916E0,3.4786983E0,0E0,0E0,1.9431419E0,0E0,0E0,0E0,0E0,1.089885E0,0E0,2.225543E0,0E0,0E0,0E0,0E0,0E0,0E0],"parents":[2147483647,0,0,1,1,2,2,3,3,4,4,5,5,6,6,7,7,8,8,12,12,15,15,16,16,17,17,18,18,21,21,26,26,28,28],"right_children":[2,4,6,8,10,12,14,16,18,-1,-1,-1,20,-1,-1,22,24,26,28,-1,-1,30,-1,-1,-1,-1,32,-1,34,-1,-1,-1,-1,-1,-1],"split_conditions":[5.4900473E-1,7.0600235E-1,2.546545E-1,2.1788272E-1,4.880858E-1,1.5251775E0,-3.6249235E-1,1.8864316E0,-5.797991E-1,-5.4220255E-2,5.492186E-2,-5.5839427E-2,-4.7852066E-1,5.695215E-2,-7.903616E-3,1.6864346E0,-1.0183668E0,-8.9132655E-1,-1.198863E0,5.1583566E-2,-3.2251637E-2,-2.0446942E0,-3.6321376E-2,2.9440423E-2,-4.2797625E-2,5.3237345E-2,-1.5454432E0,-4.23255E-2,-8.1947595E-1,-1.8268134E-2,7.421469E-2,2.8905435E-2,-5.4877E-2,-3.4448754E-2,7.3213816E-2],"split_indices":[18341,18492,5522,7289,18503,1725,30,1079,7810,0,0,0,5,0,0,13778,1150,11829,10759,0,0,2802,0,0,0,0,27,0,7476,0,0,0,0,0,0],"split_type":[0,0,0,0,0,0,0,0,0,0,0,0,0,0,0,0,0,0,0,0,0,0,0,0,0,0,0,0,0,0,0,0,0,0,0],"sum_hessian":[2.2271738E2,1.7659068E2,4.6126682E1,1.5751755E2,1.9073137E1,4.236383E1,3.7628522E0,1.15547165E2,4.197039E1,1.6758215E1,2.3149211E0,3.920183E1,3.1619992E0,2.3603601E0,1.4024919E0,1.1181675E2,3.7304106E0,1.5855381E1,2.611501E1,1.8627294E0,1.2992699E0,1.1053346E2,1.2832913E0,1.1491098E0,2.5813007E0,2.6426315E0,1.32127495E1,2.7465932E0,2.3368416E1,1.9574574E0,1.08576004E2,1.1359959E0,1.2076754E1,1.5216413E0,2.1846775E1],"tree_param":{"num_deleted":"0","num_feature":"20530","num_nodes":"35","size_leaf_vector":"1"}},{"base_weights":[1.6370224E-2,3.8430414E-1,-4.113665E-1,-2.1579705E-1,6.147421E-1,2.8673017E-1,-5.042416E-1,-4.815067E-1,3.011781E-1,-4.4479225E-2,6.902684E-1,-4.2149004E-2,7.105906E-2,1.601208E-1,-5.3512037E-1,-5.235372E-2,9.265571E-3,-4.0801074E-2,6.4006853E-1,7.299033E-1,-2.0704578E-1,-3.107281E-2,5.276389E-2,-5.4551035E-2,5.928972E-3,7.6921396E-2,1.519531E-3,7.802492E-1,6.1689083E-2,3.631925E-3,-3.3223677E-2,8.0102354E-2,-3.5077666E-3,-3.8898155E-2,5.3653505E-2],"categories":[],"categories_nodes":[],"categories_segments":[],"categories_sizes":[],"default_left":[0,0,0,0,0,0,0,0,0,0,0,0,0,0,0,0,0,0,0,0,0,0,0,0,0,0,0,0,0,0,0,0,0,0,0],"id":53,"left_children":[1,3,5,7,9,11,13,15,17,-1,19,-1,-1,21,23,-1,-1,-1,25,27,29,-1,-1,-1,-1,-1,-1,31,33,-1,-1,-1,-1,-1,-1],"loss_changes":[2.5556757E1,1.2201532E1,5.014453E0,3.5729754E0,5.374031E0,3.1383517E0,1.4530697E0,4.555726E-1,2.445114E0,0E0,2.2671757E0,0E0,0E0,8.0942786E-1,4.2713165E-1,0E0,0E0,0E0,5.159328E-1,1.8762589E0,1.1248377E-1,0E0,0E0,0E0,0E0,0E0,0E0,9.2765045E-1,1.2987562E0,0E0,0E0,0E0,0E0,0E0,0E0],"parents":[2147483647,0,0,1,1,2,2,3,3,4,4,5,5,6,6,7,7,8,8,10,10,13,13,14,14,18,18,19,19,20,20,27,27,28,28],"right_children":[2,4,6,8,10,12,14,16,18,-1,20,-1,-1,22,24,-1,-1,-1,26,28,30,-1,-1,-1,-1,-1,-1,32,34,-1,-1,-1,-1,-1,-1],"split_conditions":[-3.4115687E-1,2.1073356E-1,-9.627557E-1,3.156563E-2,-4.501924E-1,5.0187784E-1,-1.6720668E0,2.0298672E0,-2.7972957E-1,-4.4479225E-2,1.0475E0,-4.2149004E-2,7.105906E-2,3.0158976E-1,2.0206912E0,-5.235372E-2,9.265571E-3,-4.0801074E-2,8.03194E-2,-8.620269E-2,-6.213652E-1,-3.107281E-2,5.276389E-2,-5.4551035E-2,5.928972E-3,7.6921396E-2,1.519531E-3,1.4582711E0,4.0418455E-1,3.631925E-3,-3.3223677E-2,8.0102354E-2,-3.5077666E-3,-3.8898155E-2,5.3653505E-2],"split_indices":[11184,7289,14184,10246,9921,16733,3522,15204,16423,0,19895,0,0,62,14843,0,0,0,64,12135,488,0,0,0,0,0,0,372,268,0,0,0,0,0,0],"split_type":[0,0,0,0,0,0,0,0,0,0,0,0,0,0,0,0,0,0,0,0,0,0,0,0,0,0,0,0,0,0,0,0,0,0,0],"sum_hessian":[1.6038553E2,8.627466E1,7.411087E1,2.3955038E1,6.231962E1,8.456936E0,6.565394E1,1.5867981E1,8.087056E0,3.8213842E0,5.8498234E1,3.168441E0,5.288495E0,2.730092E0,6.2923843E1,1.4867784E1,1.0001979E0,2.548954E0,5.5381026E0,5.6202312E1,2.295921E0,1.2645396E0,1.4655524E0,6.1923714E1,1.0001295E0,4.3981295E0,1.1399729E0,5.210858E1,4.093731E0,1.0210128E0,1.2749083E0,5.0830963E1,1.2776191E0,2.193106E0,1.900625E0],"tree_param":{"num_deleted":"0","num_feature":"20530","num_nodes":"35","size_leaf_vector":"1"}},{"base_weights":[-1.3584611E-1,-5.0861883E-1,6.068842E-1,-5.4246683E-2,3.4171683E-1,-4.2980388E-2,7.0174503E-1,-2.9093564E-2,6.692585E-2,-3.532091E-2,7.5610214E-1,7.931584E-1,-2.957416E-2,8.116957E-2,5.555653E-3],"categories":[],"categories_nodes":[],"categories_segments":[],"categories_sizes":[],"default_left":[0,0,0,0,0,0,0,0,0,0,0,0,0,0,0],"id":54,"left_children":[1,3,5,-1,7,-1,9,-1,-1,-1,11,13,-1,-1,-1],"loss_changes":[3.787947E1,2.8015404E0,4.8059254E0,0E0,1.0428951E0,0E0,2.6951923E0,0E0,0E0,0E0,1.8165283E0,4.9467468E-1,0E0,0E0,0E0],"parents":[2147483647,0,0,1,1,2,2,4,4,6,6,10,10,11,11],"right_children":[2,4,6,-1,8,-1,10,-1,-1,-1,12,14,-1,-1,-1],"split_conditions":[8.53871E-1,1.608393E0,2.762158E-1,-5.4246683E-2,-2.6043085E-2,-4.2980388E-2,-6.424476E-1,-2.9093564E-2,6.692585E-2,-3.532091E-2,7.7253187E-1,2.8926086E-1,-2.957416E-2,8.116957E-2,5.555653E-3],"split_indices":[7354,12386,4900,0,17,0,2816,0,0,0,19186,20160,0,0,0],"split_type":[0,0,0,0,0,0,0,0,0,0,0,0,0,0,0],"sum_hessian":[1.3469855E2,8.989559E1,4.4802956E1,8.680244E1,3.093155E0,3.4599493E0,4.1343006E1,1.0932615E0,1.9998933E0,1.756438E0,3.9586567E1,3.8476967E1,1.1096007E0,3.743569E1,1.0412755E0],"tree_param":{"num_deleted":"0","num_feature":"20530","num_nodes":"15","size_leaf_vector":"1"}},{"base_weights":[-9.033469E-2,6.156203E-1,-5.2173567E-1,-4.5312013E-2,7.2873E-1,-5.389854E-2,3.9143857E-2,7.61633E-2,-9.4673475E-3],"categories":[],"categories_nodes":[],"categories_segments":[],"categories_sizes":[],"default_left":[0,0,0,0,0,0,0,0,0],"id":55,"left_children":[1,3,5,-1,7,-1,-1,-1,-1],"loss_changes":[4.1049675E1,6.517578E0,1.5270481E0,0E0,1.3364773E0,0E0,0E0,0E0,0E0],"parents":[2147483647,0,0,1,1,2,2,4,4],"right_children":[2,4,6,-1,8,-1,-1,-1,-1],"split_conditions":[-8.873315E-1,2.073632E-1,1.4666791E0,-4.5312013E-2,-1.0006245E-1,-5.389854E-2,3.9143857E-2,7.61633E-2,-9.4673475E-3],"split_indices":[19752,15500,18341,0,14836,0,0,0,0],"split_type":[0,0,0,0,0,0,0,0,0],"sum_hessian":[1.3273346E2,5.0184044E1,8.2549416E1,4.5152006E0,4.5668846E1,8.142115E1,1.1282632E0,4.3986187E1,1.6826574E0],"tree_param":{"num_deleted":"0","num_feature":"20530","num_nodes":"9","size_leaf_vector":"1"}},{"base_weights":[-2.5975996E-1,-4.336221E-1,4.907072E-1,1.3679312E-1,-5.260555E-1,6.249254E-1,-3.9032977E-2,-4.685731E-2,6.9939363E-1,1.0158189E-2,-5.3533535E-2,-3.0212311E-2,7.007629E-1,7.9263985E-2,6.250487E-3,7.721599E-2,-6.2268595E-3],"categories":[],"categories_nodes":[],"categories_segments":[],"categories_sizes":[],"default_left":[0,0,0,0,0,0,0,0,0,0,0,0,0,0,0,0,0],"id":56,"left_children":[1,3,5,7,9,11,-1,-1,13,-1,-1,-1,15,-1,-1,-1,-1],"loss_changes":[1.4999128E1,4.951151E0,2.820025E0,4.993029E0,5.194073E-1,1.567862E0,0E0,0E0,3.9592505E-1,0E0,0E0,0E0,1.0358791E0,0E0,0E0,0E0,0E0],"parents":[2147483647,0,0,1,1,2,2,3,3,4,4,5,5,8,8,12,12],"right_children":[2,4,6,8,10,12,-1,-1,14,-1,-1,-1,16,-1,-1,-1,-1],"split_conditions":[1.4946629E0,-1.1936277E0,-5.3143364E-1,1.3556284E-1,-2.7195504E0,-1.1698885E0,-3.9032977E-2,-4.685731E-2,-5.3446496E-1,1.0158189E-2,-5.3533535E-2,-3.0212311E-2,1.0308778E0,7.9263985E-2,6.250487E-3,7.721599E-2,-6.2268595E-3],"split_indices":[11686,11642,15882,14836,975,9120,0,0,350,0,0,0,7127,0,0,0,0],"split_type":[0,0,0,0,0,0,0,0,0,0,0,0,0,0,0,0,0],"sum_hessian":[1.123246E2,9.1539635E1,2.0784964E1,1.2698166E1,7.884147E1,1.8289425E1,2.4955385E0,6.197113E0,6.5010524E0,1.0037926E0,7.783768E1,1.1574001E0,1.7132025E1,5.4574785E0,1.0435737E0,1.5655203E1,1.4768217E0],"tree_param":{"num_deleted":"0","num_feature":"20530",